tree
version=v3
num_class=4
num_tree_per_iteration=4
label_index=0
max_feature_idx=116
objective=multiclass num_class:4
feature_names=cinta kesepian terluka tulus bahagia sedih marah gembira cemburu takut kecewa malu sentiment sadness anger fear happy feature_0 feature_1 feature_2 feature_3 feature_4 feature_5 feature_6 feature_7 feature_8 feature_9 feature_10 feature_11 feature_12 feature_13 feature_14 feature_15 feature_16 feature_17 feature_18 feature_19 feature_20 feature_21 feature_22 feature_23 feature_24 feature_25 feature_26 feature_27 feature_28 feature_29 feature_30 feature_31 feature_32 feature_33 feature_34 feature_35 feature_36 feature_37 feature_38 feature_39 feature_40 feature_41 feature_42 feature_43 feature_44 feature_45 feature_46 feature_47 feature_48 feature_49 feature_50 feature_51 feature_52 feature_53 feature_54 feature_55 feature_56 feature_57 feature_58 feature_59 feature_60 feature_61 feature_62 feature_63 feature_64 feature_65 feature_66 feature_67 feature_68 feature_69 feature_70 feature_71 feature_72 feature_73 feature_74 feature_75 feature_76 feature_77 feature_78 feature_79 feature_80 feature_81 feature_82 feature_83 feature_84 feature_85 feature_86 feature_87 feature_88 feature_89 feature_90 feature_91 feature_92 feature_93 feature_94 feature_95 feature_96 feature_97 feature_98 feature_99
feature_infos=[0:21] none none none [0:6] none none none none none none none [-1:1] [0.0023900030646473:0.9808427095413208] [0.0014382852241396:0.95816916227340698] [0.00085500883869819996:0.98349285125732422] [0.0010391668183729001:0.97199302911758423] [-0.62662640999999997:0.21108859999999999] [-0.079250639999999997:0.38526190999999999] [-0.24656686:0.34882577999999997] [-0.54314777000000003:0.16722187999999999] [-0.26478824000000001:0.19050417] [-0.63932668999999998:-0.11404010000000001] [-0.065567340000000002:0.29566878000000002] [0.070454810000000007:0.64942383000000004] [0.0039100200000000002:0.50971920000000004] [-0.41844059:0.28553339999999999] [-0.63359993999999997:-0.0060809899999999997] [-0.40521850999999998:0.25659750999999997] [-0.38953345:0.2348808] [0.0046306899999999998:0.32262994] [-0.09680743:0.42107637999999997] [-0.52915853999999996:0.11649414] [-0.22477433999999999:0.22841766999999999] [-0.70408402000000003:-0.016360039999999999] [-0.14465024000000001:0.25692219999999999] [-0.50116085600000004:-0.083230440000000003] [-0.11557921:0.72411444000000003] [-0.31078847999999998:0.18189876399999999] [-0.080381659999999994:0.31208816] [-0.13995921:0.51037074999999998] [-0.26479433000000002:0.25626831] [-0.10832756:0.26550379000000002] [-0.43560652999999999:0.20584354999999999] [-0.30156582999999998:0.079141530000000002] [-0.31524676000000001:0.149974] [-0.16369512:0.29968367000000001] [-0.091927060000000005:0.56301864000000001] [-0.14762438:0.32381777] [-0.25805464:0.12167008999999999] [-0.35164474000000001:0.0321491785] [-0.17621131000000001:0.35413095] [0.0086895700000000006:0.82083545999999996] [-0.70930667999999997:0.19265537999999999] [-0.17862512:0.12858054999999999] [-0.49836058:0.05720621] [-0.63446354000000005:-0.13640488000000001] [-0.1572731:0.32805202999999999] [-0.15580609000000001:0.24833914000000001] [-0.27632929000000001:0.24997918999999999] [-0.30791310999999999:0.23344418] [-0.28882692999999998:0.087248489999999998] [-0.1756036:0.19473788] [-0.42925362:0.24993693] [-0.15413361:0.20791620999999999] [-0.12318821000000001:0.31904712000000002] [-0.081753450000000005:0.37480883999999998] [0.20056268999999999:0.60689766000000001] [-0.23691165:0.25248525999999999] [-0.65418124:-0.016569179999999999] [-0.15761663000000001:0.46442470000000002] [-0.55285192000000005:0.011373080000000001] [-0.13375337000000001:0.37707816399999999] [0.068176340000000002:0.68305948999999999] [-0.15940457:0.39406076000000001] [-0.40750544999999999:0.13743282000000001] [-0.10107765:0.24500014000000001] [-0.32081688000000003:-0.021525220000000001] [-0.13124595999999999:0.10378863000000001] [-0.39048161999999997:0.15103412999999999] [-0.31542727999999998:-0.051748139999999998] [-0.63044774999999997:0.01171699] [-0.100297081:0.2310489] [-0.19917556:0.24319305999999999] [-0.37369309000000001:0.24174646999999999] [-0.53138384000000005:-0.017216965899999999] [-0.063911049999999997:0.30374445] [-0.41249988999999998:0.38667768000000002] [0.12214927:0.50445999600000002] [-0.45034576999999998:0.20420991999999999] [-0.34088502999999998:0.20498378] [-0.065441830000000006:0.50228013999999999] [-0.47961008999999999:0.24829518] [-0.30217651000000001:0.061703220000000003] [-0.30638333000000001:0.26696037] [-0.64110330999999998:-0.13232721] [-0.22090327000000001:0.27999832000000002] [-0.54492704999999997:-0.016537172400000001] [0.13336276:0.52344584000000005] [-0.22141623999999999:0.22049696999999999] [0.019456359999999999:0.55801975000000004] [-0.50346221000000002:0.10680392] [-0.23344719999999999:0.29287919000000001] [-0.27248066999999998:0.34788460999999998] [-0.13464814:0.34887269999999998] [-0.17439985:0.25378165000000003] [-0.32658636000000002:0.21159998799999999] [-0.068515230100000005:0.34291494] [-0.21905925000000001:0.24836721] [-0.21818055:0.31533365000000002] [-0.31661843000000001:0.28331391] [-0.01588987:0.41698183999999999] [-0.18026793799999999:0.36910168999999998] [-0.072973460000000004:0.62143782999999997] [-0.54485751999999998:0.24744326] [-0.36511377:0.18560584999999999] [-0.20209423000000001:0.55660902000000001]
tree_sizes=1258 1165 1256 957 1303 982 1196 984 1299 981 1298 987 1310 984 1204 987 1306 1085 1297 983 1300 983 1301 985 1520 1085 1408 987 1415 983 1201 987 1301 966 1196 979 1410 1317 1306 984 1304 981 1202 986 1406 984 1298 988 1402 1313 1283 985 1412 1313 1302 984 1304 981 1199 1093 1397 981 1309 1203 1410 987 1197 1182 1425 981 1280 1092 1420 1090 1198 1193 1299 986 1196 1211 1411 982 1301 1090 1314 981 1197 1071 1416 986 1178 1201 1410 983 1308 1089 1202 985 1309 1089 1414 1095 1196 1311 1421 1312 1202 1203 1419 986 1312 1205 1198 1090 1091 1094 1304 985 1203 1313 1311 982 1192 1092 1416 983 1310 1092 1637 986 1196 1094 1305 985 1313 1100 1306 985 1205 1091 1534 1199 1318 1199 1527 1206 1201 1092 1413 1090 1203 1205 1632 1309 1213 1094 1309 1296 1310 1096 1307 1315 1304 1097 1418 1316 1201 1090 1426 981 1199 1198 1310 1091 1313 1095 1303 982 1199 1095 1203 1195 1203 1096 1632 988 1200 1096 1102 1198 1201 1315 1181 1095 1200 1093 1312 985 1091 1092 1417 1095 1305 1197 1295 1092 1404 1088 1416 1093 1194 1200 1420 988 1420 1206 1425 1313 1102 1091 1416 987 1306 1095 1419 965 1302 1090 1305 1312 1301 1097 1419 958 1303 1203 1196 1313 1200 1195 1411 983 1502 1209 1304 1204 1407 1095 1307 1087 1281 1089 1201 983 1304 1205 1309 984 1281 1094 1425 1093 1302 1099 1203 983 1411 1199 1311 1095 1302 1201 1310 980 1408 1097 1307 982 1306 1206 1212 984 1302 1199 1311 1304 1303 1204 1095 988 1279 1202 1313 985 1298 1313 1307 1090 1314 1310 1421 986 1308 1094 1306 1090 1303 1204 1305 1205 1181 1203 1403 984 1308 1207 1312 1415 1313 1206 1419 1202 1305 1094 1198 986 1306 1203 1320 1089 1204 1205 1305 984 1308 1093 1197 1203 1196 1213 1309 987 1417 1096 1316 986 1307 1101 1319 1072 1307 1094 1303 1075 1205 1204 1301 984 1316 1207 1322 1098 1307 1099 1199 1095 1197 1098 1323 1101 1289 1094 1319 1100 1194 1211 1321 1093 1310 1093 1393 1091 1304 1207 1306 1097 1197 1419 1316 1210 1208 1093 1302 1095 1317 1094 1100 1100 1197 1213

Tree=0
num_leaves=11
num_cat=0
split_feature=14 13 78 112 78 94 69 60 26 13
split_gain=33.4624 12.131 17.7844 19.103 13.9112 6.34247 5.6187 3.58909 2.3995 1.40738
threshold=0.040612893182318116 0.020584085956215855 0.039951621464694172 0.020336276798333577 0.051967145450768172 -0.063628695029318033 -0.1769234126921774 0.042648250000000006 0.047076457656702479 0.56301413142076373
decision_type=2 2 2 2 2 2 2 2 2 2
left_child=1 6 3 -3 7 -5 -1 -4 9 -2
right_child=8 2 4 5 -6 -7 -8 -9 -10 -11
leaf_value=-1.3976677370495603 -1.4003235719154783 -1.3911844212066307 -1.3879619249208452 -1.3797985372348107 -1.3779345839297275 -1.3676451647091785 -1.3876998466914143 -1.3962238590610256 -1.3922151887322978 -1.3960017036856651
leaf_weight=11.468643933534624 21.192059442400932 7.7288687378168133 7.9781870841980043 7.728868737816815 7.9781870841979972 10.970007240772244 10.970007240772246 14.709782436490057 7.4795503914356223 13.961827397346495
leaf_count=46 85 31 32 31 32 44 44 59 30 56
internal_value=-1.39038 -1.38655 -1.3841 -1.37808 -1.38932 -1.37262 -1.39275 -1.39327 -1.39753 -1.39864
internal_weight=0 79.5326 57.0939 26.4277 30.6662 18.6989 22.4387 22.688 42.6334 35.1539
internal_count=490 319 229 106 123 75 90 91 171 141
is_linear=0
shrinkage=1


Tree=1
num_leaves=10
num_cat=0
split_feature=92 80 71 21 51 75 108 37 58
split_gain=24.3196 24.725 38.72 14.5544 9.26232 23.437 1.88765 1.81106 0.254053
threshold=1.0000000180025095e-35 -0.22314126645332269 -0.10561612749484041 -0.060519119599999997 0.032773420695735238 -0.083152064999999983 0.079845898465035842 0.043303020000000005 0.044923290000000005
decision_type=2 2 2 2 2 2 2 2 2
left_child=-1 2 -2 4 7 -6 -7 -3 -9
right_child=1 3 -4 -5 5 6 -8 8 -10
leaf_value=-1.3778365894625126 -1.3703722976001711 -1.3945262520839672 -1.3971825791915935 -1.3848469500126264 -1.3773990327632695 -1.3935521675311133 -1.4002816274838243 -1.3976536734589646 -1.4003373349321149
leaf_weight=13.712509050965307 11.967280626296999 8.7261421233415586 9.7234155088663083 13.46319070458412 8.2275054305791873 7.4795503914356258 11.219325587153433 7.7288687378168097 29.918201565742493
leaf_count=55 48 35 39 54 33 30 45 31 120
internal_value=-1.39038 -1.39197 -1.38244 -1.39437 -1.39613 -1.39142 -1.39764 -1.39884 -1.39981
internal_weight=0 108.453 21.6907 86.7628 73.2996 26.9264 18.6989 46.3732 37.6471
internal_count=490 435 87 348 294 108 75 186 151
is_linear=0
shrinkage=1


Tree=2
num_leaves=11
num_cat=0
split_feature=14 27 28 14 26 115 14 32 13 92
split_gain=35.2718 37.5384 22.213 18.6048 16.4691 9.35208 8.47906 5.63644 4.32075 1.2881
threshold=0.019125611521303602 -0.19142693999999996 -0.090162526267263635 0.13409046305616978 0.033612405000000005 0.047953635433488601 0.0071161047216028259 -0.29222101439075604 0.93310409243085468 0.04758349757220736
decision_type=2 2 2 2 2 2 2 2 2 2
left_child=2 -2 6 4 7 -5 -1 -3 9 -4
right_child=1 3 8 5 -6 -7 -8 -9 -10 -11
leaf_value=-1.3836519057946901 -1.3921479379065556 -1.3556852644595405 -1.39220676265656 -1.372413485658474 -1.378646559015392 -1.3874241929002165 -1.3692004368765438 -1.367273871455851 -1.383098179785976 -1.3876914410129688
leaf_weight=8.2724035978317279 11.531229257583616 9.2751191854476946 35.847082257270813 8.0217247009277362 8.0217247009277326 8.523082494735716 7.7710458040237418 8.7737613916397112 7.7710458040237418 9.0244402885436994
leaf_count=33 46 37 143 32 32 34 31 35 31 36
internal_value=-1.38222 -1.37619 -1.38698 -1.37184 -1.36657 -1.38021 -1.37671 -1.36126 -1.39013 -1.39132
internal_weight=0 54.1466 68.686 42.6154 26.0706 16.5448 16.0434 18.0489 52.6426 44.8715
internal_count=490 216 274 170 104 66 64 72 210 179
is_linear=0
shrinkage=1


Tree=3
num_leaves=8
num_cat=0
split_feature=13 97 14 106 26 108 67
split_gain=104.495 22.1138 14.594 13.2897 7.0463 1.75302 0.712923
threshold=0.020584085956215855 -0.13753136762812496 0.0082739622793395178 0.08365320162618127 0.030148488482128658 0.068835690720944462 0.32994379067937951
decision_type=2 2 2 2 2 2 2
left_child=4 2 3 -2 -1 -4 -7
right_child=1 -3 5 -5 -6 6 -8
leaf_value=-1.3693966781529825 -1.3723938022683391 -1.3748999152832981 -1.3868271215081365 -1.3896960981407924 -1.3578965355917032 -1.3889635420296698 -1.3919881373760974
leaf_weight=10.02715587615967 9.5257980823516863 13.787339329719542 11.280550360679625 8.2724035978317243 12.784623742103575 12.533944845199583 44.620843648910522
leaf_count=40 38 55 45 33 51 50 178
internal_value=-1.38222 -1.38663 -1.38851 -1.38049 -1.36291 -1.39061 -1.39134
internal_weight=0 100.021 86.2335 17.7982 22.8118 68.4353 57.1548
internal_count=490 399 344 71 91 273 228
is_linear=0
shrinkage=1


Tree=4
num_leaves=11
num_cat=0
split_feature=14 13 78 112 78 94 69 0 40 85
split_gain=33.0121 11.7912 17.3271 18.4693 13.6206 6.03398 5.56044 3.31757 2.40018 0.976421
threshold=0.040612893182318116 0.020584085956215855 0.039951621464694172 0.020336276798333577 0.051967145450768172 -0.063628695029318033 -0.1769234126921774 1.0000000180025095e-35 0.1034201385958972 -0.23906837469717615
decision_type=2 2 2 2 2 2 2 2 2 2
left_child=1 6 3 -3 7 -5 -1 -4 9 -2
right_child=8 2 4 5 -6 -7 -8 -9 -10 -11
leaf_value=-0.0072413929804297462 -0.0094928573564288937 -0.0007905805714165852 -0.0070198193444022498 0.010440070016459031 0.012261922907109358 0.022252751161304662 0.0026889473785662453 0.00058656171126384858 -0.0017955973573891668 -0.0056834852417829273
leaf_weight=11.40552142262459 23.104240298271179 7.723647981882098 10.463131770491605 7.7731213867664382 8.0331113636493665 11.112900912761685 10.967225685715674 12.205865249037741 7.4593984633684149 11.913518711924551
leaf_count=46 93 31 42 31 32 44 44 49 30 48
internal_value=0 0.00379557 0.00620379 0.0121136 0.00104917 0.0174438 -0.0023288 -0.00288014 -0.00711982 -0.00822541
internal_weight=0 79.6845 57.3118 26.6097 30.7021 18.886 22.3727 22.669 42.4772 35.0178
internal_count=490 319 229 106 123 75 90 91 171 141
is_linear=0
shrinkage=0.01


Tree=5
num_leaves=8
num_cat=0
split_feature=14 80 108 65 21 30 93
split_gain=94.9327 22.1896 25.9446 14.7851 14.1215 3.51768 1.77634
threshold=0.13409046305616978 -0.22392373099121843 0.091651714844127666 0.13097957000000002 -0.060519119599999997 0.15125307659032769 -0.030718264999999998
decision_type=2 2 2 2 2 2 2
left_child=1 2 -1 -2 5 6 -3
right_child=3 4 -4 -5 -6 -7 -8
leaf_value=0.016066775079092127 0.026195721313856606 -0.0099480587604836319 -0.0075049024424077614 0.010297774216151105 0.0032495402500911652 -0.0018367084078737635 -0.0044638084031792605
leaf_weight=10.308121725916864 11.293531462550165 52.398526236414909 8.4714924842119199 12.757824361324309 12.000225931406019 7.48261435329914 7.4500247985124579
leaf_count=41 45 211 34 51 48 30 30
internal_value=0 -0.00436472 0.00538033 0.0178044 -0.0066842 -0.00846952 -0.00928208
internal_weight=0 98.111 18.7796 24.0514 79.3314 67.3312 59.8486
internal_count=490 394 75 96 319 271 241
is_linear=0
shrinkage=0.01


Tree=6
num_leaves=10
num_cat=0
split_feature=54 14 26 28 91 102 78 73 25
split_gain=42.6089 32.3377 22.8743 19.1671 12.1425 4.85547 3.58998 2.78507 1.4388
threshold=0.018535985000000001 0.016968663644829397 0.03543039500000001 -0.090162526267263635 0.22215604000000003 -0.060385174999999992 0.043062243714774871 0.17494954204589316 0.17071574000000003
decision_type=2 2 2 2 2 2 2 2 2
left_child=1 3 4 -1 5 -3 -5 -2 -9
right_child=7 2 -4 6 -6 -7 -8 8 -10
leaf_value=0.0092877451596438988 -0.0021234342561033378 0.027897392253660992 0.00089445688937914462 -0.0093285687797888279 0.0074488285252638457 0.016184719949203143 -0.0018890158895945933 -0.0099591783335867684 -0.0048883526663654562
leaf_weight=10.817887365818022 7.7462940365076056 7.8728503584861738 14.564366668462752 16.706132858991626 9.0866105109453184 7.583425179123882 11.23087629675865 29.209560424089432 8.0102619826793653
leaf_count=43 31 31 58 67 36 30 45 117 32
internal_value=0 0.00447578 0.0108952 -0.00197616 0.0167891 0.0222154 -0.00637361 -0.00775048 -0.00889473
internal_weight=0 77.8621 39.1073 38.7549 24.5429 15.4563 27.937 44.9661 37.2198
internal_count=490 310 155 155 97 61 112 180 149
is_linear=0
shrinkage=0.01


Tree=7
num_leaves=8
num_cat=0
split_feature=13 16 14 26 25 14 67
split_gain=101.713 24.3075 15.2734 6.66849 5.47315 2.09044 0.47804
threshold=0.020584085956215855 0.06088475137948985 0.0071161047216028259 0.030148488482128658 0.14286412871105358 0.0096852594148637353 0.32994379067937951
decision_type=2 2 2 2 2 2 2
left_child=3 2 -2 -1 -4 -6 -7
right_child=1 -3 4 -5 5 6 -8
leaf_value=0.012615776821102711 0.0034043991690227292 0.012264149365765326 0.00020788922957544199 0.023754574408003434 -0.0034322254278584536 -0.007360400559167043 -0.0097484563411752781
leaf_weight=10.102469414472582 14.819454133510588 8.0324063152074796 7.7425238192081443 12.971505880355833 7.7584287524223319 15.511019080877302 45.889802157878876
leaf_count=40 59 32 31 51 31 62 184
internal_value=0 -0.00437657 -0.00584477 0.018921 -0.00764015 -0.00853321 -0.00916147
internal_weight=0 99.7536 91.7212 23.074 76.9018 69.1592 61.4008
internal_count=490 399 367 91 308 277 246
is_linear=0
shrinkage=0.01


Tree=8
num_leaves=11
num_cat=0
split_feature=14 13 97 90 27 22 57 69 40 85
split_gain=32.4606 11.4532 12.8241 12.5653 12.035 7.03242 8.24727 5.51829 2.38552 0.975861
threshold=0.040612893182318116 0.020584085956215855 -0.15234374499999997 0.0028986742353712363 -0.18863602499999996 -0.24443282999999996 0.17124262350000002 -0.1769234126921774 0.1034201385958972 -0.23906837469717615
decision_type=2 2 2 2 2 2 2 2 2 2
left_child=1 7 3 5 -4 -3 -7 -1 9 -2
right_child=8 2 4 -5 -6 6 -8 -9 -10 -11
leaf_value=-0.0072077395727549532 -0.0094622579559731964 -0.0051185012022668076 0.0030542399294580082 0.014147900049687393 0.019587586534052372 -0.0032241738812179635 0.010874874651961505 0.0026971538317994482 -0.0017734384497733807 -0.005646074954718589
leaf_weight=11.35472095012665 22.971571043133736 14.520016461610796 7.5597579181194332 7.8129488229751578 11.101551234722136 7.5147177875041988 9.0429233610630018 10.96207359433174 7.4467200338840476 11.864753648638724
leaf_count=46 93 58 30 31 44 30 36 44 30 48
internal_value=0 0.00375109 0.00611396 0.00281117 0.0129435 -6.71931e-06 0.0044156 -0.00229762 -0.0070846 -0.00819123
internal_weight=0 79.8687 57.5519 38.8906 18.6613 31.0777 16.5576 22.3168 42.283 34.8363
internal_count=490 319 229 155 74 124 66 90 171 141
is_linear=0
shrinkage=0.01


Tree=9
num_leaves=8
num_cat=0
split_feature=14 80 71 65 21 24 80
split_gain=92.3197 21.9244 33.5012 14.1109 13.9855 3.53186 0.962111
threshold=0.13409046305616978 -0.22392373099121843 -0.10561612749484041 0.13097957000000002 -0.060519119599999997 0.32301841100000006 -0.20466749449606206
decision_type=2 2 2 2 2 2 2
left_child=1 2 -1 -2 5 6 -3
right_child=3 4 -4 -5 -6 -7 -8
leaf_value=0.017050102205382056 0.02555473887580333 -0.006418544728550476 -0.0098273372513483694 0.010109726038600799 0.0032218878199134987 -0.001777534700323999 -0.0099204712678207414
leaf_weight=10.654162853956224 11.470823347568514 11.621411278843878 8.1655565202236158 12.852928876876829 12.018330350518225 7.4487514644861212 47.919710099697113
leaf_count=42 45 47 33 51 48 30 194
internal_value=0 -0.00433505 0.0053353 0.0174345 -0.00665117 -0.00843738 -0.00925375
internal_weight=0 97.8279 18.8197 24.3238 79.0082 66.9899 59.5411
internal_count=490 394 75 96 319 271 241
is_linear=0
shrinkage=0.01


Tree=10
num_leaves=11
num_cat=0
split_feature=54 14 26 92 109 111 97 92 24 114
split_gain=41.9103 31.393 22.0975 15.567 13.7897 12.7191 4.7905 2.89901 2.0895 1.33555
threshold=0.018535985000000001 0.016968663644829397 0.03543039500000001 0.046565421150000008 0.081699891886929096 0.14746513708715805 -0.16617157064348881 0.050118999812719396 0.28613549559172535 -0.062693238020754397
decision_type=2 2 2 2 2 2 2 2 2 2
left_child=1 3 5 8 -5 6 -3 9 -1 -2
right_child=7 2 -4 4 -6 -7 -8 -9 -10 -11
leaf_value=-0.003124369601843242 -0.0099307845190242331 0.027298478401861961 0.00087175754086535925 0.0146857615216529 -0.0032507294615286486 0.0067056605327440681 0.015830574079015568 -0.0018742002416800724 -0.0098994339991334262 -0.005118910640430907
leaf_weight=7.4516719877719906 28.79575277864933 8.2485568821430189 14.584938898682593 8.0505276024341601 9.0209278762340528 8.8787043839693052 7.6693439781665829 7.5037139803171149 14.162981793284414 8.4496686607599241
leaf_count=30 116 32 58 32 36 35 30 30 57 34
internal_value=0 0.00442247 0.0107115 -0.00195377 0.00514915 0.0164587 0.021836 -0.00771593 -0.00760999 -0.00886599
internal_weight=0 78.0677 39.3815 38.6861 17.0715 24.7966 15.9179 44.7491 21.6147 37.2454
internal_count=490 310 155 155 68 97 62 180 87 150
is_linear=0
shrinkage=0.01


Tree=11
num_leaves=8
num_cat=0
split_feature=13 16 14 18 58 14 67
split_gain=98.9425 23.8967 15.0533 6.47601 5.69479 1.79468 0.455371
threshold=0.020584085956215855 0.06088475137948985 0.0071161047216028259 0.05209773863603806 0.037918860280722444 0.0093779331073164506 0.32994379067937951
decision_type=2 2 2 2 2 2 2
left_child=3 2 -2 -1 -4 -6 -7
right_child=1 -3 4 -5 5 6 -8
leaf_value=0.013795421525328153 0.0033502297981601427 0.012093710670207281 0.0005519473739740039 0.024739283498873159 -0.0039842730311390288 -0.0073701916620992078 -0.0097120561857012792
leaf_weight=13.331692397594454 14.862710952758787 8.0825988501310331 7.4908275306224814 10.00680550932884 8.4874442070722562 15.694320246577261 44.857565835118294
leaf_count=52 59 32 30 39 34 63 181
internal_value=0 -0.00434749 -0.00581246 0.0185306 -0.00760499 -0.00850451 -0.00912159
internal_weight=0 99.4755 91.3929 23.3385 76.5302 69.0393 60.5519
internal_count=490 399 367 91 308 278 244
is_linear=0
shrinkage=0.01


Tree=12
num_leaves=11
num_cat=0
split_feature=110 0 56 63 74 97 106 76 110 82
split_gain=14.4123 10.0991 10.1967 8.24456 13.3272 7.14507 16.9407 4.76845 4.05128 1.23273
threshold=0.20524623380412266 1.0000000180025095e-35 -0.2810828502588209 0.040088570000000011 0.042997916970408563 -0.15224375749999997 0.048033030000000011 -0.0029900449999999998 0.15744668500000003 0.076403282280826393
decision_type=2 2 2 2 2 2 2 2 2 2
left_child=1 5 3 4 -3 7 -7 -1 -5 -9
right_child=-2 2 -4 8 -6 6 -8 9 -10 -11
leaf_value=0.00057015809679941611 0.012717270304534843 0.015035977059689537 0.010192183762975348 -0.0098561933210657045 -0.0020268439356017315 -0.006778887272163428 0.010782791097997031 -0.00444459538826292 -0.00097567239538580116 -0.0094459969846556937
leaf_weight=7.4814354181289664 8.3061224818229658 7.5397634059190777 12.313712835311888 8.2117691487073916 11.443667396903036 12.889086902141573 9.5589052438735944 7.4349698722362545 14.50826922059059 22.450239032506943
leaf_count=30 33 30 49 33 46 52 38 30 58 91
internal_value=0 -0.000927351 0.00219531 -0.000141929 0.00469742 -0.00376407 0.000654758 -0.00644545 -0.0042294 -0.00823519
internal_weight=0 113.832 54.0172 41.7035 18.9834 59.8146 22.448 37.3666 22.72 29.8852
internal_count=490 457 216 167 76 241 90 151 91 121
is_linear=0
shrinkage=0.01


Tree=13
num_leaves=8
num_cat=0
split_feature=14 80 113 21 65 24 30
split_gain=89.8312 21.6506 25.0537 13.8464 13.4869 3.51401 1.16834
threshold=0.13409046305616978 -0.22392373099121843 0.28523349400447912 -0.060519119599999997 0.13097957000000002 0.32301841100000006 0.14614378222763671
decision_type=2 2 2 2 2 2 2
left_child=1 2 -1 5 -2 6 -3
right_child=4 3 -4 -5 -6 -7 -8
leaf_value=0.015670448669248237 0.024949853766470798 -0.0098921577866706786 -0.0074637587084276204 0.0031922466458585395 0.009929646980711658 -0.0017586300583914418 -0.0058748279454729829
leaf_weight=10.438987821340563 11.641680479049684 49.101516366004944 8.4222333431243879 12.037717908620833 12.944680273532866 7.4378742128610602 10.106248542666433
leaf_count=41 45 200 34 48 51 30 41
internal_value=0 -0.00430596 0.00528715 -0.00661824 0.0170824 -0.00840524 -0.00922332
internal_weight=0 97.5446 18.8612 78.6834 24.5864 66.6456 59.2078
internal_count=490 394 75 319 96 271 241
is_linear=0
shrinkage=0.01


Tree=14
num_leaves=10
num_cat=0
split_feature=54 14 111 83 28 22 13 92 114
split_gain=41.1812 30.4993 21.5227 32.0349 18.7024 5.32247 3.55373 2.87825 1.33202
threshold=0.018535985000000001 0.016968663644829397 0.15244761765861764 -0.13156266563647526 -0.090162526267263635 -0.2430464747111577 0.50212076429908314 0.050118999812719396 -0.062693238020754397
decision_type=2 2 2 2 2 2 2 2 2
left_child=1 4 3 -3 -1 -5 -6 8 -2
right_child=7 2 -4 5 6 -7 -8 -9 -10
leaf_value=0.009135950028721463 -0.0098989068340956301 -0.0032917717165505222 -0.0031398551797308456 0.023852023313846171 -0.0092752754472524741 0.013409221053968473 -0.0018524900077266416 -0.0018563336418798359 -0.0050833063015674144
leaf_weight=10.884739145636557 28.606860727071762 7.5577907860279074 8.8302540779113752 15.250519365072252 16.544990032911304 8.0120222568511981 11.198914691805838 7.4932770729064933 8.4185417592525464
leaf_count=43 116 30 35 59 67 31 45 30 34
internal_value=0 0.00436672 0.0105317 0.0144811 -0.00193542 0.0202983 -0.00631509 -0.00767949 -0.00883098
internal_weight=0 78.2792 39.6506 30.8203 38.6286 23.2625 27.7439 44.5187 37.0254
internal_count=490 310 155 120 155 90 112 180 150
is_linear=0
shrinkage=0.01


Tree=15
num_leaves=8
num_cat=0
split_feature=13 16 14 26 58 14 67
split_gain=96.275 23.4703 14.8787 6.25094 5.65885 1.78428 0.453327
threshold=0.020584085956215855 0.06088475137948985 0.0071161047216028259 0.030148488482128658 0.037918860280722444 0.0093779331073164506 0.32994379067937951
decision_type=2 2 2 2 2 2 2
left_child=3 2 -2 -1 -4 -6 -7
right_child=1 -3 4 -5 5 6 -8
leaf_value=0.012094027278185546 0.0033158991289805612 0.011914852736368458 0.00055997673784096726 0.022769466512779137 -0.0039604472220251593 -0.0073389647109931237 -0.0096813773266216947
leaf_weight=10.293482571840288 14.890120908617972 8.1356360614299756 7.4868887066841117 13.303202807903288 8.4688258022069913 15.628922939300535 44.584634646773338
leaf_count=40 59 32 30 51 34 63 181
internal_value=0 -0.00431856 -0.0057799 0.0181549 -0.00757115 -0.00847206 -0.00908999
internal_weight=0 99.195 91.0594 23.5967 76.1693 68.6824 60.2136
internal_count=490 399 367 91 308 278 244
is_linear=0
shrinkage=0.01


Tree=16
num_leaves=11
num_cat=0
split_feature=14 13 67 90 31 69 57 16 82 66
split_gain=31.5557 10.9752 10.6632 11.3363 8.27797 5.47249 4.71036 2.3897 4.73504 0.532761
threshold=0.040612893182318116 0.020584085956215855 0.32186691500000003 0.0028986742353712363 0.072679381726565448 -0.1769234126921774 0.18443296724377903 0.016361954621970601 0.074911748750000021 0.25825771230022704
decision_type=2 2 2 2 2 2 2 2 2 2
left_child=1 5 -3 4 -4 -1 -6 8 -2 -10
right_child=7 2 3 -5 6 -7 -8 -9 9 -11
leaf_value=-0.0071680055702085122 0.0013642051570298725 0.014518263645527938 0.0095745045267864454 0.013740218865376692 0.0016414507962106792 0.0027111062754811973 -0.0069022248807025536 -0.0098493087446211644 -0.0098086448159998736 -0.0056539020783015195
leaf_weight=11.294026032090189 7.8813978135585812 11.735909610986708 9.1128421574830991 9.1833315789699537 17.887919098138813 10.953143760561941 10.000844791531561 17.894040629267693 8.8548504114151019 7.3238734304904929
leaf_count=46 32 46 36 36 71 44 40 73 36 30
internal_value=0 0.00367841 0.00597628 0.00378405 0.00128603 -0.00225919 -0.00138643 -0.00702564 -0.00488404 -0.00798966
internal_weight=0 80.168 57.9208 46.1849 37.0016 22.2472 27.8888 41.9542 24.0601 16.1787
internal_count=490 319 229 183 147 90 111 171 98 66
is_linear=0
shrinkage=0.01


Tree=17
num_leaves=9
num_cat=0
split_feature=14 67 92 26 94 75 69 84
split_gain=87.5392 17.9535 28.5546 16.7393 13.0159 9.1094 3.54197 0.30372
threshold=0.13409046305616978 0.33872650448104741 0.042318414303955117 0.039499425000000012 -0.053348189999999997 -0.0909279947914228 -0.15915093354039703 0.10703168174859314
decision_type=2 2 2 2 2 2 2 2
left_child=1 6 3 -3 -2 -4 7 -1
right_child=4 2 5 -5 -6 -7 -8 -9
leaf_value=-0.009867104635464757 0.010868930756811432 0.00023802020841687615 0.0014815863772455118 0.020771174856243954 0.025910380617915025 -0.0098698910462132524 -0.001789330694263765 -0.0070303137202487832
leaf_weight=36.67943748831749 15.174765557050707 7.7251488566398647 11.234497115015985 8.391727000474928 9.6557649672031385 18.453714340925217 7.452936351299285 7.3337385058403006
leaf_count=150 59 31 45 33 37 75 30 30
internal_value=0 -0.00427835 0.000254415 0.0109913 0.0167583 -0.00554063 -0.00833197 -0.00941714
internal_weight=0 97.2712 45.8051 16.1169 24.8305 29.6882 51.4661 44.0132
internal_count=490 394 184 64 96 120 210 180
is_linear=0
shrinkage=0.01


Tree=18
num_leaves=11
num_cat=0
split_feature=54 0 65 83 34 58 112 98 92 114
split_gain=40.494 22.3582 24.2558 28.7348 12.958 13.5556 7.5061 5.55906 2.85979 1.32585
threshold=0.018535985000000001 2.5000000000000004 0.13533593547575082 -0.12867204427791873 -0.17253089499999999 0.05745003196168464 0.032333599803951625 0.21252099619444612 0.050118999812719396 -0.062693238020754397
decision_type=2 2 2 2 2 2 2 2 2 2
left_child=1 2 4 -4 -1 -6 -3 -5 9 -2
right_child=8 6 3 7 5 -7 -8 -9 -10 -11
leaf_value=-0.0098457739241292769 -0.0098682919863566278 -0.0084755800039234188 0.00029923678676590593 0.015197258500428046 0.014112870217412803 -0.0023202409593525491 0.0031304900031049266 0.02682872052716714 -0.0018379223297531628 -0.0050544661969529978
leaf_weight=7.7089209258556393 28.422288045287132 14.129708930850031 9.5732775181531924 7.8245028555393246 9.4500962346792239 10.525828599929808 9.0433230102062208 10.218926250934599 7.4825048148632041 8.3931776881217939
leaf_count=31 116 57 38 30 37 42 36 39 30 34
internal_value=0 0.00431393 0.00777522 0.0144093 0.00112138 0.00540378 -0.00390313 0.0218402 -0.00764493 -0.008798
internal_weight=0 78.4746 55.3016 27.6167 27.6848 19.9759 23.173 18.0434 44.298 36.8155
internal_count=490 310 217 107 110 79 93 69 180 150
is_linear=0
shrinkage=0.01


Tree=19
num_leaves=8
num_cat=0
split_feature=13 16 14 18 58 14 67
split_gain=93.8525 22.9853 14.6727 6.05833 5.6196 1.77135 0.454831
threshold=0.020584085956215855 0.06088475137948985 0.0071161047216028259 0.05209773863603806 0.037918860280722444 0.0093779331073164506 0.32994379067937951
decision_type=2 2 2 2 2 2 2
left_child=3 2 -2 -1 -4 -6 -7
right_child=1 -3 4 -5 5 6 -8
leaf_value=0.013262425607699887 0.0032668597317449767 0.011703114970970235 0.00056527221290312213 0.023739837574668399 -0.0039396314118535928 -0.0073009514589009259 -0.0096512599011631239
leaf_weight=13.575116008520128 14.929316312074659 8.1988923847675306 7.484257072210311 10.258363187313078 8.4524586647748929 15.548857986927031 44.313153833150864
leaf_count=52 59 32 30 39 34 63 181
internal_value=0 -0.00429149 -0.0057479 0.0178141 -0.00753665 -0.0084389 -0.00905748
internal_weight=0 98.9269 90.728 23.8335 75.7987 68.3145 59.862
internal_count=490 399 367 91 308 278 244
is_linear=0
shrinkage=0.01


Tree=20
num_leaves=11
num_cat=0
split_feature=14 98 39 78 112 48 56 108 26 48
split_gain=31.0409 10.2679 12.0252 10.9449 15.0514 10.6104 4.6235 4.45588 2.38879 1.23162
threshold=0.040612893182318116 0.20807387850000003 0.18314327068563171 0.042097617656250537 0.023733195000000002 0.0078130212650000027 -0.29215914499999995 0.08708236403909865 0.047076457656702479 0.029649040000000005
decision_type=2 2 2 2 2 2 2 2 2 2
left_child=1 2 -1 4 -3 -6 -4 -5 9 -2
right_child=8 3 6 7 5 -7 -8 -9 -10 -11
leaf_value=0.00082475687263996013 -0.0094145700130494458 -0.00364216480769044 0.019386298851827681 -0.0083215981082493638 0.0189572979628789 0.0037353184267013041 0.0082985804615157404 0.0011057242527739044 -0.0016563189012073745 -0.0050453849089902459
leaf_weight=11.859238713979723 23.866962939500809 12.741307705640795 8.4379983544349688 12.686044484376909 8.2128438204526919 10.817058607935904 7.5742863565683356 8.0077847391366941 7.3794734179973593 10.515759542584417
leaf_count=47 98 51 33 51 32 43 30 32 30 43
internal_value=0 0.00363716 0.00854702 0.00100979 0.00471158 0.0103573 0.0142039 -0.00462523 -0.0069914 -0.00810736
internal_weight=0 80.3366 27.8715 52.465 31.7712 19.0299 16.0123 20.6938 41.7622 34.3827
internal_count=490 319 110 209 126 75 63 83 171 141
is_linear=0
shrinkage=0.01


Tree=21
num_leaves=8
num_cat=0
split_feature=14 99 92 112 65 83 18
split_gain=85.236 15.6758 26.0142 23.4289 12.5638 7.81748 2.27027
threshold=0.13409046305616978 -0.08530517384715873 0.044837980032939845 0.026545091818215936 0.13097957000000002 -0.12867204427791873 0.041944710000000003
decision_type=2 2 2 2 2 2 2
left_child=1 2 3 -1 -2 -4 -3
right_child=4 6 5 -5 -6 -7 -8
leaf_value=0.022182148193008278 0.02391200510368157 -0.0041276776093791805 0.0009159842673967715 -2.5507174311907876e-05 0.0095561666596712044 -0.009832017288909714 -0.009584362350104415
leaf_weight=7.7020464241504696 11.942554324865343 10.546652093529699 9.9843764454126376 12.163356140255926 13.136439710855482 19.996009603142738 36.595175951719284
leaf_count=30 45 43 40 49 51 82 150
internal_value=0 -0.00424995 -0.000319343 0.00853432 0.0164323 -0.00621925 -0.0083848
internal_weight=0 96.9876 49.8458 19.8654 25.079 29.9804 47.1418
internal_count=490 394 201 79 96 122 193
is_linear=0
shrinkage=0.01


Tree=22
num_leaves=11
num_cat=0
split_feature=54 0 97 26 70 46 112 81 92 114
split_gain=39.7812 21.8521 23.2104 22.2307 12.6692 12.2471 7.44248 5.3088 2.83643 1.32397
threshold=0.018535985000000001 2.5000000000000004 -0.14385972765568714 0.03543039500000001 0.089399446118208117 0.043311546296396615 0.032333599803951625 -0.13457307819017428 0.050118999812719396 -0.062693238020754397
decision_type=2 2 2 2 2 2 2 2 2 2
left_child=1 2 3 4 7 -5 -3 -1 9 -2
right_child=8 6 -4 5 -6 -7 -8 -9 -10 -11
leaf_value=0.022956560611834726 -0.0098369435870471096 -0.0084501333374673998 -0.0075083150188953018 0.0095547102266224579 0.0042293023166375824 -0.0074708052457391986 0.0031123616987069466 0.012422998386734732 -0.0018238842767148941 -0.0050160605670004754
leaf_weight=14.712291747331621 28.230547770857811 14.071885049343111 8.4675337970256788 8.610738009214403 7.6144007146358481 8.2638653963804227 9.0520004183053953 7.8824526518583324 7.4742040932178488 8.3594335168600065
leaf_count=56 116 57 34 34 30 33 36 30 30 34
internal_value=0 0.0042592 0.00766552 0.0104156 0.0155539 0.00115768 -0.00388067 0.0193261 -0.00760858 -0.00876288
internal_weight=0 78.6752 55.5513 47.0837 30.2091 16.8746 23.1239 22.5947 44.0642 36.59
internal_count=490 310 217 183 116 67 93 86 180 150
is_linear=0
shrinkage=0.01


Tree=23
num_leaves=8
num_cat=0
split_feature=13 16 14 26 58 14 52
split_gain=91.375 22.5969 14.5145 5.9065 5.58132 1.76376 0.454819
threshold=0.020584085956215855 0.06088475137948985 0.0071161047216028259 0.030148488482128658 0.037918860280722444 0.0093779331073164506 0.16090398122636668
decision_type=2 2 2 2 2 2 2
left_child=3 2 -2 -1 -4 -6 -7
right_child=1 -3 4 -5 5 6 -8
leaf_value=0.01161413019661383 0.0032383773281995168 0.011542881590001941 0.00056923050665356393 0.021895542925037967 -0.0039127945212051899 -0.0098447533354936254 -0.0077316190097994186
leaf_weight=10.472249478101732 14.952158629894255 8.2471255064010602 7.4822214245796195 13.606238424777983 8.4315564930438978 36.022284686565399 23.508200481534004
leaf_count=40 59 32 30 51 34 148 96
internal_value=0 -0.00426285 -0.00571591 0.0174655 -0.0075038 -0.00840731 -0.00902709
internal_weight=0 98.6435 90.3964 24.0785 75.4443 67.962 59.5305
internal_count=490 399 367 91 308 278 244
is_linear=0
shrinkage=0.01


Tree=24
num_leaves=13
num_cat=0
split_feature=14 13 78 112 78 24 78 60 16 82 75 95
split_gain=30.5471 10.4906 16.2264 16.9929 12.8936 4.87756 3.68301 3.40156 2.39672 4.69625 1.61939 0.52975
threshold=0.040612893182318116 0.020584085956215855 0.039951621464694172 0.020336276798333577 0.051967145450768172 0.29064411741574231 0.04277975215000001 0.042648250000000006 0.016361954621970601 0.074911748750000021 -0.076657853863636077 -0.23373551299999998
decision_type=2 2 2 2 2 2 2 2 2 2 2 2
left_child=1 6 3 -3 7 -5 10 -4 9 -2 -1 -11
right_child=8 2 4 5 -6 -7 -8 -9 -10 11 -12 -13
leaf_value=-0.0084646062087481572 0.001419972294188732 -0.00090211427798534837 0.00213505032240627 0.022224051785480245 0.011615684741984893 0.011809330710029677 0.0034598054554432524 -0.0058578123557619932 -0.0098010995205203219 -0.0097498179478506669 -0.0016412482276671591 -0.0055877033621673823
leaf_weight=7.4183542877435693 7.8535237163305309 7.7836017757654217 8.1093485802412086 8.5980442166328448 8.2240604013204557 10.865723997354506 7.3927774578332892 14.734199374914168 17.708233863115311 8.7448034286499059 7.3705593198537835 7.2680846303701374
leaf_count=30 32 31 32 33 32 42 30 59 73 36 30 30
internal_value=0 0.00359763 0.00582887 0.0114645 0.000854002 0.0164614 -0.00222313 -0.00297661 -0.0069581 -0.00480677 -0.00513157 -0.00792313
internal_weight=0 80.4967 58.315 27.2474 31.0676 19.4638 22.1817 22.8435 41.5746 23.8664 14.7889 16.0129
internal_count=490 319 229 106 123 75 90 91 171 98 60 66
is_linear=0
shrinkage=0.01


Tree=25
num_leaves=9
num_cat=0
split_feature=14 80 71 57 36 39 80 92
split_gain=83.0168 21.0006 31.5182 12.1387 8.99733 13.3907 2.88684 6.00055
threshold=0.13409046305616978 -0.22392373099121843 -0.10561612749484041 0.17020481409980123 -0.29035297999999993 0.16722738500000003 -0.20319945499999997 0.04758349757220736
decision_type=2 2 2 2 2 2 2 2
left_child=1 2 -1 -2 6 -6 7 -3
right_child=3 4 -4 -5 5 -7 -8 -9
leaf_value=0.016303948254891003 0.024090100822502326 0.0020176301277955778 -0.0097532047360471535 0.0099359037967887472 -0.0085434976539349467 0.0099155463557888332 -0.00961087057359504 -0.0097641160018418233
leaf_weight=10.900882706046106 10.988829642534258 7.4297614693641689 8.0383727699518186 14.331377893686293 8.2732687592506391 7.4817388057708731 44.620275631546974 9.958491384983061
leaf_count=42 41 30 33 55 34 30 184 41
internal_value=0 -0.00422175 0.00519173 0.0161182 -0.00652725 0.000158862 -0.00824217 -0.00467243
internal_weight=0 96.7028 18.9393 25.3202 77.7635 15.755 62.0085 17.3883
internal_count=490 394 75 96 319 64 255 71
is_linear=0
shrinkage=0.01


Tree=26
num_leaves=12
num_cat=0
split_feature=54 14 111 83 92 109 85 92 31 114 74
split_gain=39.1089 28.4291 19.9767 29.3688 15.0471 12.8834 4.95442 2.81207 2.08617 1.32167 1.2311
threshold=0.018535985000000001 0.016968663644829397 0.15244761765861764 -0.13156266563647526 0.046565421150000008 0.081699891886929096 -0.24165705759202133 0.050118999812719396 0.071762614726852553 -0.062693238020754397 0.041876855124605039
decision_type=2 2 2 2 2 2 2 2 2 2 2
left_child=1 4 3 -3 8 -6 10 9 -1 -2 -5
right_child=7 2 -4 6 5 -7 -8 -9 -10 -11 -12
leaf_value=-0.0030364595686675957 -0.009806967410253567 -0.0032767876815841196 -0.0031288579976742211 0.019215462377179013 0.014097623767272572 -0.0031757881695667614 0.012451409961146496 -0.0018135129967608958 -0.0098369862524805302 -0.0049801365295304607 0.025681642241936142
leaf_weight=7.393152683973315 28.043576240539551 7.547309383749961 8.8196098208427411 8.063345700502401 8.2085460871458071 8.9604948312044126 7.8763779699802425 7.4679419696331015 13.978340312838553 8.3277378827333433 8.0136431157588941
leaf_count=30 116 30 35 30 32 36 30 30 57 34 30
internal_value=0 0.00420742 0.0100815 0.0138119 -0.001912 0.00502441 0.0192381 -0.00757401 -0.00753124 -0.00872929 0.0225008
internal_weight=0 78.8608 40.3203 31.5007 38.5405 17.169 23.9534 43.8393 21.3715 36.3713 16.077
internal_count=490 310 155 120 155 68 90 180 87 150 60
is_linear=0
shrinkage=0.01


Tree=27
num_leaves=8
num_cat=0
split_feature=13 16 14 18 58 14 67
split_gain=89.1081 22.1753 14.3374 5.69394 5.54418 1.75988 0.456415
threshold=0.020584085956215855 0.06088475137948985 0.0071161047216028259 0.05209773863603806 0.037918860280722444 0.0093779331073164506 0.32994379067937951
decision_type=2 2 2 2 2 2 2
left_child=3 2 -2 -1 -4 -6 -7
right_child=1 -3 4 -5 5 6 -8
leaf_value=0.012760544429869205 0.0032004464290869201 0.011363094469988818 0.0005742799461035743 0.022821705908338846 -0.0038804477644661843 -0.0072322802905110378 -0.0095950890831303075
leaf_weight=13.808289706707003 14.982461795210837 8.3015257418155652 7.4796403795480719 10.496241033077238 8.4064180850982648 15.403007239103315 43.797656640410423
leaf_count=52 59 32 30 39 34 63 181
internal_value=0 -0.00423586 -0.0056847 0.0171467 -0.00747092 -0.00837578 -0.00899722
internal_weight=0 98.3707 90.0692 24.3045 75.0867 67.6071 59.2007
internal_count=490 399 367 91 308 278 244
is_linear=0
shrinkage=0.01


Tree=28
num_leaves=12
num_cat=0
split_feature=14 13 78 112 78 94 35 60 16 45 66
split_gain=30.0436 10.1994 15.8051 16.5092 12.6275 5.39789 4.08895 3.34678 2.38864 3.54474 1.13357
threshold=0.040612893182318116 0.020584085956215855 0.039951621464694172 0.020336276798333577 0.051967145450768172 -0.063628695029318033 0.048579840000000006 0.042648250000000006 0.016361954621970601 -0.14786012640655138 0.25906000271538149
decision_type=2 2 2 2 2 2 2 2 2 2 2
left_child=1 6 3 -3 7 -5 -1 -4 9 10 -2
right_child=8 2 4 5 -6 -7 -8 -9 -10 -11 -12
leaf_value=0.0022145580466656789 -0.0097610768818570583 -0.00091219469418825057 0.0020901349728784059 0.0096303922653495407 0.01144058516420089 0.020610761727411022 -0.00634309279448559 -0.0058343349873559583 -0.0097725496473316676 0.00089090845766978612 -0.0041404205264897222
leaf_weight=10.613800242543222 9.2398862689733559 7.7889560312032726 8.1300511956214958 8.0231246352195775 8.2768332958221418 11.612809211015698 11.514625057578085 14.695584222674368 17.596021458506584 7.326897904276847 7.2168357968330374
leaf_count=43 38 31 32 31 32 44 47 59 73 30 30
internal_value=0 0.00355736 0.00574869 0.0112857 0.000834203 0.0161752 -0.00219326 -0.00296798 -0.00692375 -0.00477406 -0.00735699
internal_weight=0 80.6558 58.5274 27.4249 31.1025 19.6359 22.1284 22.8256 41.3796 23.7836 16.4567
internal_count=490 319 229 106 123 75 90 91 171 98 68
is_linear=0
shrinkage=0.01


Tree=29
num_leaves=8
num_cat=0
split_feature=14 0 21 41 94 67 44
split_gain=80.8559 20.1891 14.4001 45.7039 11.7613 4.17645 0.299721
threshold=0.13409046305616978 9.5000000000000018 -0.068807254999999998 0.0064787062541826227 -0.053348189999999997 0.35108309240432861 -0.11788693999999998
decision_type=2 2 2 2 2 2 2
left_child=1 2 5 -4 -2 6 -1
right_child=4 -3 3 -5 -6 -7 -8
leaf_value=-0.0070108518680182018 0.010249382952110933 0.0094932122950922848 -0.009151648256811501 0.020933176734332572 0.024327965356780425 -0.0029645549425956737 -0.009800410020326264
leaf_weight=7.3122611939907065 15.529451429843904 9.6443561762571317 14.681268051266672 7.6910020858049384 10.027762830257414 13.046840742230414 44.033546820282936
leaf_count=30 59 38 60 30 37 53 183
internal_value=0 -0.00419353 -0.0057264 0.00114603 0.0158125 -0.00812966 -0.00942262
internal_weight=0 96.4093 86.7649 22.3723 25.5572 64.3926 51.3458
internal_count=490 394 356 90 96 266 213
is_linear=0
shrinkage=0.01


Tree=30
num_leaves=10
num_cat=0
split_feature=54 14 111 83 28 22 78 92 114
split_gain=38.43 27.6286 19.3991 28.3799 17.7725 4.72943 3.58791 2.78768 1.31606
threshold=0.018535985000000001 0.016968663644829397 0.15244761765861764 -0.13156266563647526 -0.090162526267263635 -0.2430464747111577 0.043062243714774871 0.050118999812719396 -0.062693238020754397
decision_type=2 2 2 2 2 2 2 2 2
left_child=1 4 3 -3 -1 -5 -6 8 -2
right_child=7 2 -4 5 6 -7 -8 -9 -10
leaf_value=0.0087842269770294166 -0.0097758241561082659 -0.003263954636014095 -0.0031184711963561157 0.022116510827071952 -0.009216420646191938 0.012435999872495676 -0.0017202769791836155 -0.0018025247381424853 -0.0049491138945200247
leaf_weight=11.038328051567076 27.846431031823158 7.5390833020210257 8.811354532837866 15.933788210153581 16.357755184173588 8.2798565626144427 11.081039249897001 7.4612912386655799 8.3002317845821363
leaf_count=43 116 30 35 59 67 31 45 30 34
internal_value=0 0.00415509 0.00991722 0.0135661 -0.00189357 0.0188476 -0.00622558 -0.00753876 -0.00869515
internal_weight=0 79.0412 40.5641 31.7527 38.4771 24.2136 27.4388 43.608 36.1467
internal_count=490 310 155 120 155 90 112 180 150
is_linear=0
shrinkage=0.01


Tree=31
num_leaves=8
num_cat=0
split_feature=13 16 14 26 67 14 76
split_gain=86.7917 21.8145 14.1636 5.61542 3.38345 1.70742 0.867043
threshold=0.020584085956215855 0.06088475137948985 0.0071161047216028259 0.030148488482128658 0.31591677100000004 0.0093779331073164506 0.01593064394075723
decision_type=2 2 2 2 2 2 2
left_child=3 2 -2 -1 -4 -6 -7
right_child=1 -3 4 -5 5 6 -8
leaf_value=0.011154487016614945 0.0031640350825131599 0.011216311868347276 -0.0012029949679610284 0.021091522535433671 -0.0036795276490031305 -0.0095797664696024853 -0.0065528151698667891
leaf_weight=10.645903408527376 15.011637166142462 8.3461653590202314 8.1320651024579984 13.891871988773344 8.1462411582469922 42.962664112448692 15.482264444231985
leaf_count=40 59 32 33 51 33 178 64
internal_value=0 -0.00420745 -0.00565315 0.016821 -0.00743787 -0.00818425 -0.00879503
internal_weight=0 98.081 89.7349 24.5378 74.7232 66.5912 58.4449
internal_count=490 399 367 91 308 275 242
is_linear=0
shrinkage=0.01


Tree=32
num_leaves=11
num_cat=0
split_feature=14 13 97 116 41 21 57 69 40 13
split_gain=29.5418 9.89813 11.4382 14.7683 13.2077 8.34204 6.78089 5.44515 2.38719 0.954344
threshold=0.040612893182318116 0.020584085956215855 -0.15234374499999997 0.012933825000000001 0.017730045506776159 -0.079858779613587491 0.17613487000000003 -0.1769234126921774 0.1034201385958972 0.64975315142221868
decision_type=2 2 2 2 2 2 2 2 2 2
left_child=1 7 4 -4 5 -3 -7 -1 9 -2
right_child=8 2 3 -5 -6 6 -8 -9 -10 -11
leaf_value=-0.0070900091713551527 -0.0093115824006390555 -0.0058860108020877865 0.019580774533813614 0.0017649699916585805 0.013758662529105521 -0.0016779402891113216 0.011115637974262651 0.0028054375739915106 -0.001534360907202518 -0.0055048022163069754
leaf_weight=11.17447951436043 22.072003126144409 14.773074895143507 11.020755901932718 8.2810989916324598 8.3021740615367872 8.4171945452690178 7.9476227760314933 10.894061520695685 7.3088593333959571 11.800902605056761
leaf_count=46 92 59 42 32 32 33 31 44 30 49
internal_value=0 0.00351734 0.0056672 0.011989 0.00254796 -0.000408991 0.00447419 -0.00215984 -0.006889 -0.00801487
internal_weight=0 80.8105 58.7419 19.3019 39.4401 31.1379 16.3648 22.0685 41.1818 33.8729
internal_count=490 319 229 74 155 123 64 90 171 141
is_linear=0
shrinkage=0.01


Tree=33
num_leaves=8
num_cat=0
split_feature=14 99 92 112 57 83 93
split_gain=78.7636 15.304 25.0768 21.8437 11.3532 7.64454 2.06624
threshold=0.13409046305616978 -0.08530517384715873 0.044837980032939845 0.026545091818215936 0.17020481409980123 -0.12867204427791873 -0.043765194999999993
decision_type=2 2 2 2 2 2 2
left_child=1 2 3 -1 -2 -4 -3
right_child=4 6 5 -5 -6 -7 -8
leaf_value=0.021302202035893895 0.023121652291311447 -0.0094933983737740691 0.00089026523673701259 0 0.0095610775404338776 -0.0097619187612022935 -0.0043333284412819268
leaf_weight=7.882524877786639 11.25135123729706 35.444526940584183 9.9942009747028369 12.132620260119436 14.537307798862455 19.683495581150055 10.978779152035711
leaf_count=30 41 148 40 49 55 82 45
internal_value=0 -0.00416541 -0.000287756 0.00834127 0.0155162 -0.00614102 -0.00829462
internal_weight=0 96.1161 49.6928 20.0151 25.7887 29.6777 46.4233
internal_count=490 394 201 79 96 122 193
is_linear=0
shrinkage=0.01


Tree=34
num_leaves=10
num_cat=0
split_feature=54 14 111 83 28 61 78 73 25
split_gain=37.8127 26.85 18.8506 27.4248 17.4475 4.62688 3.55486 2.78775 1.43857
threshold=0.018535985000000001 0.016968663644829397 0.15244761765861764 -0.13156266563647526 -0.090162526267263635 -0.04717538929342454 0.043062243714774871 0.17494954204589316 0.17071574000000003
decision_type=2 2 2 2 2 2 2 2 2
left_child=1 4 3 -3 -1 -5 -6 -2 -9
right_child=7 2 -4 5 6 -7 -8 8 -10
leaf_value=0.0086689384258855032 -0.0018177518895967416 -0.0032461708120841404 -0.0031067007416301137 0.015137091690934636 -0.0091805200835259736 0.024628263994657226 -0.0017054699640391832 -0.0097691874206502407 -0.0046304219489503966
leaf_weight=11.089864760637282 7.5581728219985953 7.5275637209415427 8.8021679967641813 15.96800607442856 16.244950249791149 8.4972367286682147 11.06777675449848 28.031838461756706 7.8030213862657538
leaf_count=43 31 30 35 59 67 31 45 117 32
internal_value=0 0.00410776 0.009761 0.0133325 -0.00187163 0.0184744 -0.00618806 -0.00750624 -0.00867813
internal_weight=0 79.1976 40.795 31.9928 38.4026 24.4652 27.3127 43.393 35.8349
internal_count=490 310 155 120 155 90 112 180 149
is_linear=0
shrinkage=0.01


Tree=35
num_leaves=8
num_cat=0
split_feature=13 97 14 106 26 98 97
split_gain=84.6072 20.3498 13.3253 12.3954 5.38724 1.8789 0.638267
threshold=0.020584085956215855 -0.13753136762812496 0.0082739622793395178 0.08365320162618127 0.030148488482128658 0.20156091526792694 -0.15680782518705952
decision_type=2 2 2 2 2 2 2
left_child=4 2 3 -2 -1 -4 -7
right_child=1 -3 5 -5 -6 6 -8
leaf_value=0.010972269765778055 0.0091837472086491682 0.006938636296345212 -0.004084182622089089 -0.0074467653360479891 0.02067093680415993 -0.0095453165114268781 -0.0066690071001077756
leaf_weight=10.715315699577333 9.7739211469888705 14.01785136759281 10.498721733689306 8.239073380827902 14.043690979480742 42.41631768643856 12.851225346326826
leaf_count=40 38 55 43 33 51 177 53
internal_value=0 -0.00417997 -0.00605226 0.0015215 0.0165139 -0.00814188 -0.00889459
internal_weight=0 97.7971 83.7793 18.013 24.759 65.7663 55.2675
internal_count=490 399 344 71 91 273 230
is_linear=0
shrinkage=0.01


Tree=36
num_leaves=12
num_cat=0
split_feature=14 98 39 74 63 113 54 49 16 82 66
split_gain=29.0376 9.64462 11.4202 10.222 7.53625 6.02822 4.31698 3.41005 2.39533 4.66931 0.555536
threshold=0.040612893182318116 0.20807387850000003 0.18314327068563171 0.056693630000000002 0.040088570000000011 0.28651346122632088 0.017363085000000004 0.012158934230552578 0.016361954621970601 0.074911748750000021 0.25825771230022704
decision_type=2 2 2 2 2 2 2 2 2 2 2
left_child=1 2 -1 4 -3 7 -4 -6 9 -2 -11
right_child=8 3 6 -5 5 -7 -8 -9 -10 10 -12
leaf_value=0.0006805732706577786 0.0015296881300739134 0.0054768520410944212 0.0084981700826520009 0.011010100649428534 -0.0092043309761889042 0.0032730145571316055 0.019114689679220139 -0.0008708556384836502 -0.0097232277247899998 -0.0096986519256403864 -0.0054326959339249794
leaf_weight=11.956901356577875 7.7984311729669598 12.751677811145781 8.5131776779890078 8.4574600309133512 14.82553200423718 8.8996019810438138 7.8039939403533927 7.7594493180513373 17.397922039031982 8.6447943747043592 7.1388255059719077
leaf_count=47 32 50 33 33 60 35 30 31 73 36 30
internal_value=0 0.00347698 0.00819319 0.000927408 -0.000977679 -0.00362361 0.013637 -0.0063855 -0.00685361 -0.00469411 -0.00783255
internal_weight=0 80.9678 28.2741 52.6937 44.2363 31.4846 16.3172 22.585 40.98 23.5821 15.7836
internal_count=490 319 110 209 176 126 63 91 171 98 66
is_linear=0
shrinkage=0.01


Tree=37
num_leaves=11
num_cat=0
split_feature=13 92 19 38 26 21 67 61 63 112
split_gain=21.3116 26.1995 23.4057 20.7851 23.8129 6.69854 6.31365 2.80802 0.232001 0.211381
threshold=0.021241380394352211 1.0000000180025095e-35 0.0044084150000000006 0.015557020936317086 0.038790329035448594 -0.060519119599999997 0.34245574346251734 -0.050770151848762719 0.050758321079106057 0.033554110000000005
decision_type=2 2 2 2 2 2 2 2 2 2
left_child=9 -2 3 -3 6 7 -5 8 -4 -1
right_child=1 2 5 4 -6 -7 -8 -9 -10 -11
leaf_value=-0.0096918029579787304 0.016424772965795451 -0.0043263897632965162 -0.0097788665113512224 -0.0037894269929489837 0.020751402739192407 0.0026036634656310302 0.0086863774653972315 -0.002963904727007183 -0.0069029904745003682 -0.0068698673315652197
leaf_weight=15.164022326469423 11.149320080876349 14.348770365118979 15.913836255669592 8.1961478888988548 12.498245403170584 9.3720076084136945 7.9157506227493277 12.906248703598978 7.2024790048599234 7.1668085306882849
leaf_count=64 42 58 66 33 47 37 31 52 30 30
internal_value=0 0.00197898 0.000144748 0.00544656 0.0103829 -0.00485056 0.00227785 -0.00681769 -0.00892607 -0.00883092
internal_weight=0 99.5028 88.3535 42.9589 28.6101 45.3946 16.1119 36.0226 23.1163 22.3308
internal_count=490 396 354 169 111 185 64 148 96 94
is_linear=0
shrinkage=0.01


Tree=38
num_leaves=11
num_cat=0
split_feature=54 14 111 28 88 85 78 92 13 19
split_gain=37.1946 26.1206 18.3531 17.1521 15.9946 4.50599 3.53501 2.76468 1.27243 0.738162
threshold=0.018535985000000001 0.016968663644829397 0.15244761765861764 -0.090162526267263635 0.35164373043269836 -0.24098007811782904 0.043062243714774871 0.050118999812719396 0.50212076429908314 0.0090083908162550217
decision_type=2 2 2 2 2 2 2 2 2 2
left_child=1 3 4 -1 5 9 -5 8 -2 -3
right_child=7 2 -4 6 -6 -7 -8 -9 -10 -11
leaf_value=0.0085635482498879166 -0.0097257957978811576 0.017369927794646058 -0.0030991842196632442 -0.0091504026358065413 0.00030405190614509419 0.010617181794932911 -0.0016835104121348617 -0.0017524120725559752 -0.0049951764816321426 0.022613306335021718
leaf_weight=11.136928454041479 27.285448849201202 8.1999900788068789 8.7962370514869672 16.149268329143528 7.6062874644994727 8.036460220813753 11.048833921551703 7.4316410124301902 8.4575128555297834 8.3755797445774061
leaf_count=43 115 30 35 67 30 30 45 30 35 30
internal_value=0 0.00406061 0.00961144 -0.00185213 0.0131127 0.0170306 -0.00615385 -0.00747298 -0.00863441 0.0200797
internal_weight=0 79.3496 41.0146 38.335 32.2183 24.612 27.1981 43.1746 35.743 16.5756
internal_count=490 310 155 155 120 90 112 180 150 60
is_linear=0
shrinkage=0.01


Tree=39
num_leaves=8
num_cat=0
split_feature=13 16 14 58 108 14 52
split_gain=82.431 21.2262 13.8315 5.46044 5.21944 1.73392 0.456806
threshold=0.020584085956215855 0.06088475137948985 0.0071161047216028259 0.037918860280722444 0.084926818406571999 0.0093779331073164506 0.16090398122636668
decision_type=2 2 2 2 2 2 2
left_child=4 2 -2 -4 -1 -5 -7
right_child=1 -3 3 5 -6 6 -8
leaf_value=0.020137601144005892 0.0030936596307132858 0.010989114016209667 0.00061456813862357585 -0.0038098838323765644 0.010578118952437716 -0.0097384100198203358 -0.0076031669548069841
leaf_weight=14.607064098119737 15.066995143890379 8.4153933525085431 7.4591710716485968 8.350005775690077 10.373725533485411 35.160347983241081 23.053687259554863
leaf_count=53 59 32 30 34 38 148 96
internal_value=0 -0.00415182 -0.00559324 -0.00737492 0.0162079 -0.00828525 -0.00891
internal_weight=0 97.5056 89.0902 74.0232 24.9808 66.564 58.214
internal_count=490 399 367 308 91 278 244
is_linear=0
shrinkage=0.01


Tree=40
num_leaves=11
num_cat=0
split_feature=14 13 78 112 78 69 94 60 26 13
split_gain=28.6286 9.54408 15.1598 15.5667 12.1335 5.39204 5.05402 3.23781 2.40657 1.46763
threshold=0.040612893182318116 0.020584085956215855 0.039951621464694172 0.020336276798333577 0.051967145450768172 -0.1769234126921774 -0.063628695029318033 0.042648250000000006 0.047076457656702479 0.56301413142076373
decision_type=2 2 2 2 2 2 2 2 2 2
left_child=1 5 3 -3 7 -1 -5 -4 9 -2
right_child=8 2 4 6 -6 -7 -8 -9 -10 -11
leaf_value=-0.0070614292018139155 -0.0097203925234758647 -0.000937203096346861 0.001940775059093571 0.0092945134503571846 0.011042779651093373 0.002793792234364577 0.019842780287220991 -0.0058307513953373647 -0.0014286459306900351 -0.0052231468410874901
leaf_weight=11.130103781819345 20.200732976198196 7.8006135970354107 8.1972928196191841 8.1287387013435399 8.3965965956449491 10.900680065155028 11.855352520942684 14.685233473777769 7.2487016022205344 13.361273825168608
leaf_count=46 85 31 32 31 32 44 44 59 30 56
internal_value=0 0.00344474 0.00554468 0.0109227 0.000735472 -0.00213974 0.0156022 -0.00300303 -0.00682426 -0.0079598
internal_weight=0 81.0946 59.0638 27.7847 31.2791 22.0308 19.9841 22.8825 40.8107 33.562
internal_count=490 319 229 106 123 90 75 91 171 141
is_linear=0
shrinkage=0.01


Tree=41
num_leaves=8
num_cat=0
split_feature=14 80 41 21 65 24 30
split_gain=75.8259 20.0904 22.7097 13.2123 10.9459 3.45948 1.16506
threshold=0.13409046305616978 -0.22392373099121843 0.019335956683072596 -0.060519119599999997 0.13097957000000002 0.32301841100000006 0.14614378222763671
decision_type=2 2 2 2 2 2 2
left_child=1 2 -1 5 -2 6 -3
right_child=4 3 -4 -5 -6 -7 -8
leaf_value=0.01387620640241557 0.021880842012417162 -0.0097331312043781957 -0.00840547319539044 0.0031274157462455282 0.0087453873558671087 -0.0015826269594724377 -0.0056723050405315259
leaf_weight=11.540081068873407 12.556592255830767 47.344481736421585 7.5221523642539969 12.06530839204788 13.556908041238783 7.3300875276327124 9.8618171066045743
leaf_count=44 45 200 31 48 51 30 41
internal_value=0 -0.00412602 0.00503117 -0.00641783 0.0150998 -0.00821785 -0.00905056
internal_weight=0 95.6639 19.0622 76.6017 26.1135 64.5364 57.2063
internal_count=490 394 75 319 96 271 241
is_linear=0
shrinkage=0.01


Tree=42
num_leaves=10
num_cat=0
split_feature=54 14 111 83 28 22 78 73 25
split_gain=36.5427 25.3993 17.8222 25.9045 16.8639 4.39441 3.51681 2.77151 1.43931
threshold=0.018535985000000001 0.016968663644829397 0.15244761765861764 -0.13156266563647526 -0.090162526267263635 -0.2430464747111577 0.043062243714774871 0.17494954204589316 0.17071574000000003
decision_type=2 2 2 2 2 2 2 2 2
left_child=1 4 3 -3 -1 -5 -6 -2 -9
right_child=7 2 -4 5 6 -7 -8 8 -10
leaf_value=0.0084583691170634669 -0.0017545942786682579 -0.0032540742938872188 -0.0030845859187167341 0.020901371356138034 -0.0091221101861691245 0.011689745942280129 -0.0016621543796241744 -0.0097157971691700668 -0.0045551076820314748
leaf_weight=11.184092774987219 7.5189629048109046 7.5319854170083955 8.7853309661149961 16.431212574243546 16.058768764138225 8.4905943274498039 11.02981463074684 27.679912328720093 7.7426221072673789
leaf_count=43 31 30 35 59 67 31 45 117 32
internal_value=0 0.00401016 0.00945896 0.0128853 -0.00183483 0.0178032 -0.00612151 -0.00743788 -0.00861601
internal_weight=0 79.5118 41.2391 32.4538 38.2727 24.9218 27.0886 42.9415 35.4225
internal_count=490 310 155 120 155 90 112 180 149
is_linear=0
shrinkage=0.01


Tree=43
num_leaves=8
num_cat=0
split_feature=13 16 14 18 55 92 105
split_gain=80.4567 20.913 13.6637 5.17422 3.35803 8.10065 0.773099
threshold=0.020584085956215855 0.06088475137948985 0.0071161047216028259 0.05209773863603806 -0.035167994295670253 0.033518405000000008 0.0078860484107854661
decision_type=2 2 2 2 2 2 2
left_child=3 2 -2 -1 5 6 -4
right_child=1 -3 4 -5 -6 -7 -8
leaf_value=0.011803509500678173 0.0030563289567338793 0.010863427753918136 -0.0055128502666447112 0.021226745839920673 -0.0097256160335317896 0.00070494688040769805 -0.0097679711178910826
leaf_weight=14.260808050632479 15.096846789121626 8.4540961384773237 7.201835140585902 10.922978669404982 33.395981118083 14.088099882006643 18.991319537162781
leaf_count=52 59 32 30 39 141 58 79
internal_value=0 -0.00412528 -0.00556394 0.0159304 -0.00734385 -0.00534437 -0.0086362
internal_weight=0 97.2282 88.7741 25.1838 73.6772 40.2813 26.1932
internal_count=490 399 367 91 308 167 109
is_linear=0
shrinkage=0.01


Tree=44
num_leaves=12
num_cat=0
split_feature=14 110 104 98 78 86 27 45 16 82 66
split_gain=28.1493 9.36746 7.95715 10.6878 10.9275 9.079 5.8971 9.75431 2.39164 4.63398 0.562773
threshold=0.040612893182318116 0.20524623380412266 0.080236500166111127 0.20807387850000003 0.039575954300000007 0.14216577700000002 -0.18898170576979881 -0.14193560286122217 0.016361954621970601 0.074911748750000021 0.25825771230022704
decision_type=2 2 2 2 2 2 2 2 2 2 2
left_child=1 2 3 -1 -5 6 -4 -8 9 -2 -11
right_child=8 -3 5 4 -6 -7 7 -9 -10 10 -12
leaf_value=0.013751882690053807 0.0015759944516318097 0.013815200732804057 -0.0035316353814305403 0.0087952195857463299 -0.0044307171396876415 -0.0088966391173376635 -0.0020956993219965474 0.013438399771081883 -0.009675404853245936 -0.009658211442926657 -0.0053539703260945051
leaf_weight=11.20880416035652 7.7750324010849026 7.8488504141569129 10.856651186943052 12.067668974399568 12.855806320905684 10.390491113066672 7.619074374437333 8.3875248879194295 17.201195195317268 8.563809394836424 7.072712004184722
leaf_count=43 32 30 43 47 52 42 30 32 73 36 30
internal_value=0 0.0034064 0.00227952 0.00562709 0.00193301 -0.000940431 0.00209974 0.00598176 -0.00678982 -0.00462698 -0.00777527
internal_weight=0 81.2349 73.386 36.1323 24.9235 37.2537 26.8633 16.0066 40.6127 23.4116 15.6365
internal_count=490 319 289 142 99 147 105 62 171 98 66
is_linear=0
shrinkage=0.01


Tree=45
num_leaves=8
num_cat=0
split_feature=14 80 71 21 65 24 80
split_gain=73.8915 19.797 29.2783 13.0774 10.4918 3.44461 0.952278
threshold=0.13409046305616978 -0.22392373099121843 -0.10561612749484041 -0.060519119599999997 0.13097957000000002 0.32301841100000006 -0.20466749449606206
decision_type=2 2 2 2 2 2 2
left_child=1 2 -1 5 -2 6 -3
right_child=4 3 -4 -5 -6 -7 -8
leaf_value=0.015409314277116684 0.021418732905056959 -0.006160776718863864 -0.0096816577994649228 0.0030988943114106248 0.0086087018045947275 -0.0015608440543252559 -0.0097042944164115429
leaf_weight=11.200586125254633 12.700340360403063 11.242438390851019 7.906331092119216 12.082873493432997 13.628908067941664 7.3172039687633506 45.613961264491081
leaf_count=42 45 47 33 48 51 30 194
internal_value=0 -0.00409847 0.00497448 -0.00638491 0.0148258 -0.00818615 -0.00902121
internal_weight=0 95.3634 19.1069 76.2565 26.3292 64.1736 56.8564
internal_count=490 394 75 319 96 271 241
is_linear=0
shrinkage=0.01


Tree=46
num_leaves=11
num_cat=0
split_feature=54 14 111 83 28 85 78 73 25 74
split_gain=35.9567 24.7341 17.312 25.101 16.5981 4.30051 3.4912 2.76235 1.43361 1.15946
threshold=0.018535985000000001 0.016968663644829397 0.15244761765861764 -0.13156266563647526 -0.090162526267263635 -0.24165705759202133 0.043062243714774871 0.17494954204589316 0.17071574000000003 0.041876855124605039
decision_type=2 2 2 2 2 2 2 2 2 2
left_child=1 4 3 -3 -1 9 -6 -2 -9 -5
right_child=7 2 -4 5 6 -7 -8 8 -10 -11
leaf_value=0.0083638825951366132 -0.0017269685626037921 -0.0032393291861633629 -0.0030636504477300187 0.017334314543836798 -0.009092496525182802 0.011257777377859848 -0.0016477969843699588 -0.009689397306651467 -0.00452978221487865 0.023417913572881588
leaf_weight=11.226727753877638 7.5018482953310004 7.522652074694629 8.7692679315805417 8.4886505305767077 15.962781354784967 8.2065944671630913 11.016780838370321 27.502066358923912 7.7220000028610221 8.4520756006240827
leaf_count=43 31 30 35 30 67 30 45 117 32 30
internal_value=0 0.00396548 0.00932036 0.0126751 -0.00181635 0.0174755 -0.00608961 -0.00740564 -0.00858667 0.0204286
internal_weight=0 79.6455 41.4392 32.67 38.2063 25.1473 26.9796 42.7259 35.2241 16.9407
internal_count=490 310 155 120 155 90 112 180 149 60
is_linear=0
shrinkage=0.01


Tree=47
num_leaves=8
num_cat=0
split_feature=13 16 14 58 18 14 52
split_gain=78.4679 20.5893 13.4893 5.42853 4.9364 1.72755 0.456088
threshold=0.020584085956215855 0.06088475137948985 0.0071161047216028259 0.037918860280722444 0.05209773863603806 0.0093779331073164506 0.16090398122636668
decision_type=2 2 2 2 2 2 2
left_child=4 2 -2 -4 -1 -5 -7
right_child=1 -3 3 5 -6 6 -8
leaf_value=0.011622724294668039 0.0030170261551703392 0.010733291669892038 0.00066506750590566966 -0.0037487275473879985 0.020794765361558599 -0.0096881747938853714 -0.0075449563183652094
leaf_weight=14.347279369831087 15.128291845321653 8.4942240417003614 7.4343821704387656 8.3014152348041517 11.041084408760069 34.735197797417641 22.844661742448807
leaf_count=52 59 32 30 34 39 148 96
internal_value=0 -0.00409792 -0.00553362 -0.00731164 0.0156509 -0.00822696 -0.00885523
internal_weight=0 96.9382 88.4439 73.3157 25.3884 65.8813 57.5799
internal_count=490 399 367 308 91 278 244
is_linear=0
shrinkage=0.01


Tree=48
num_leaves=12
num_cat=0
split_feature=14 110 112 78 13 98 75 37 99 26 13
split_gain=27.6773 9.13817 7.84705 11.3665 21.4274 9.79259 6.96949 5.72224 3.9428 2.39837 1.46797
threshold=0.040612893182318116 0.20524623380412266 0.017853588322875421 0.039575954300000007 0.024815720041526847 0.20769271767941838 -0.081513849813038483 0.064816282490297542 -0.097959342873210661 0.047076457656702479 0.56301413142076373
decision_type=2 2 2 2 2 2 2 2 2 2 2
left_child=1 2 6 4 -4 -5 -1 -6 -7 10 -2
right_child=9 -3 3 5 7 8 -8 -9 -10 -11 -12
leaf_value=-0.0098335902040385878 -0.0096701753986078963 0.013612115199865903 -0.0046579704336174969 0.0071036685687382896 0.0088896867290419786 -0.0088076998673535765 0.0031824624791526018 0.020635414007009009 5.337439143676887e-05 -0.0013569049211968138 -0.0051519659442141666
leaf_weight=8.8877860605716723 19.95494644343853 7.9018254131078711 7.8234791457653072 12.094148039817812 8.2540874034166354 9.8383457213640231 7.5028402358293524 9.2734550535678846 9.8034861981868726 7.2074427753686896 13.251111567020414
leaf_count=36 85 30 32 47 31 40 30 34 39 30 56
internal_value=0 0.0033684 0.00225317 0.00401281 0.00900541 0 -0.00381446 0.0151612 -0.00433411 -0.00675559 -0.00789727
internal_weight=0 81.3795 73.4776 57.087 25.351 31.736 16.3906 17.5275 19.6418 40.4135 33.2061
internal_count=490 319 289 223 97 126 66 65 79 171 141
is_linear=0
shrinkage=0.01


Tree=49
num_leaves=11
num_cat=0
split_feature=13 53 19 18 80 24 21 61 63 112
split_gain=20.3668 17.2105 20.9537 14.9519 20.9376 20.8873 13.5417 2.16521 0.246606 0.219986
threshold=0.021241380394352211 -0.050565827557064187 0.0044084150000000006 0.0087121348500000025 -0.22314126645332269 0.29557926900390014 -0.060519119599999997 -0.050770151848762719 0.050758321079106057 0.033554110000000005
decision_type=2 2 2 2 2 2 2 2 2 2
left_child=9 -2 3 -3 -5 -6 7 8 -4 -1
right_child=1 2 6 4 5 -7 -8 -9 -10 -11
leaf_value=-0.0096128021651470646 0.013997888690539945 -0.0072047861701848969 -0.0097280480663976352 0.019540972867676906 0.014908653698865196 -0.0043921322840898818 0.0057589788523207024 -0.003584627459329204 -0.0068035734085766242 -0.0067392328992036789
leaf_weight=14.871089279651644 10.54505981504917 7.4696074128150931 16.413484901189804 11.296527937054632 9.0415635257959384 14.651434794068335 10.581069305539129 12.594278648495676 7.1012824028730384 7.0322051793336859
leaf_count=64 39 30 69 42 34 60 41 51 30 30
internal_value=0 0.00191373 0.000473137 0.00556711 0.00832225 0.0029311 -0.00413781 -0.00706557 -0.00888741 -0.00873588
internal_weight=0 99.6943 89.1492 42.4591 34.9895 23.693 46.6901 36.109 23.5148 21.9033
internal_count=490 396 357 166 136 94 191 150 99 94
is_linear=0
shrinkage=0.01


Tree=50
num_leaves=11
num_cat=0
split_feature=25 92 13 38 53 98 14 58 56 110
split_gain=28.2086 23.9373 17.6714 21.1966 18.586 8.48521 6.10109 3.48479 2.20509 1.04772
threshold=0.16092032813937021 0.025822597869952446 0.61945149695784341 0.025419036343532198 0.016593472318439627 0.21229525850000003 0.066918717575996114 0.065798187191439914 -0.28883033333358238 0.13859715000000003
decision_type=2 2 2 2 2 2 2 2 2 2
left_child=6 9 4 5 -3 -4 8 -6 -1 -2
right_child=1 2 3 -5 7 -7 -8 -9 -10 -11
leaf_value=-0.0097104041736185559 -0.0041916794435407356 0.011642763435025117 0.0087378492856904477 -0.0032752292431854897 -0.00057357797958751313 0.020478512742524983 0 -0.009863030235021655 -0.0034497265922946423 -0.0097248006757375376
leaf_weight=26.434216827154156 7.2252159118652335 9.5482244938612002 10.903208881616594 7.5324163883924475 7.4929387271404293 15.393389135599135 12.05258673429489 9.4138928949832898 7.8438177704811123 8.4405438303947431
leaf_count=112 30 37 41 30 30 56 49 38 32 35
internal_value=0 0.00374571 0.00661625 0.0114054 0.000454372 0.0156486 -0.00615513 -0.00580519 -0.00830695 -0.0072367
internal_weight=0 75.9498 60.2841 33.829 26.4551 26.2966 46.3306 16.9068 34.278 15.6658
internal_count=490 297 232 127 105 97 193 68 144 65
is_linear=0
shrinkage=0.01


Tree=51
num_leaves=8
num_cat=0
split_feature=13 16 14 25 26 14 67
split_gain=76.6603 20.199 13.3153 5.40897 4.97708 2.00464 0.473764
threshold=0.020584085956215855 0.06088475137948985 0.0071161047216028259 0.14286412871105358 0.030148488482128658 0.0096852594148637353 0.32994379067937951
decision_type=2 2 2 2 2 2 2
left_child=4 2 -2 -4 -1 -5 -7
right_child=1 -3 3 5 -6 6 -8
leaf_value=0.010139983288114003 0.002977334810291634 0.01056606038101526 0.00062660856993433417 -0.0031557648526796336 0.019318017954357759 -0.0070213893017857035 -0.0094518380429206572
leaf_weight=11.034745365381243 15.160050868988035 8.5460251569747907 7.5253301113843909 7.5697103738784781 14.539953619241713 14.79743918776512 43.060275226831436
leaf_count=40 59 32 31 31 51 62 184
internal_value=0 -0.00407242 -0.00550355 -0.00727964 0.0153971 -0.00820429 -0.00884752
internal_weight=0 96.6588 88.1128 72.9528 25.5747 65.4274 57.8577
internal_count=490 399 367 308 91 277 246
is_linear=0
shrinkage=0.01


Tree=52
num_leaves=12
num_cat=0
split_feature=14 13 78 112 78 69 24 0 16 82 69
split_gain=27.3034 8.92306 14.2351 14.5004 11.6997 5.33694 4.18605 3.13486 2.39094 4.60885 0.572069
threshold=0.040612893182318116 0.020584085956215855 0.039951621464694172 0.020336276798333577 0.051967145450768172 -0.1769234126921774 0.29064411741574231 1.0000000180025095e-35 0.016361954621970601 0.074911748750000021 -0.16397182559290716
decision_type=2 2 2 2 2 2 2 2 2 2 2
left_child=1 5 3 -3 7 -1 -5 -4 9 -2 -11
right_child=8 2 4 6 -6 -7 -8 -9 -10 10 -12
leaf_value=-0.0070056961689927933 0.0016322226423218869 -0.00095590492059542329 -0.007037677580186614 0.02013772410674065 0.010733802405513908 0.0028232569973470965 0.010700299170150874 0.0003210252642255715 -0.0096302324388328701 -0.0096213569188543808 -0.0052724665344492366
leaf_weight=11.0432745218277 7.746726110577586 7.8089594841003445 10.472554534673696 9.0795975327491778 8.4892988651990873 10.880856439471243 11.304046958684919 12.399298638105391 17.011104613542557 8.4903308600187302 7.0033436715602848
leaf_count=46 32 31 42 33 32 44 42 49 73 36 30
internal_value=0 0.00333942 0.00535205 0.0105111 0.000682388 -0.00208202 0.0149531 -0.00300465 -0.00672745 -0.00455969 -0.00772014
internal_weight=0 81.4779 59.5538 28.1926 31.3612 21.9241 20.3836 22.8719 40.2515 23.2404 15.4937
internal_count=490 319 229 106 123 90 75 91 171 98 66
is_linear=0
shrinkage=0.01


Tree=53
num_leaves=11
num_cat=0
split_feature=13 94 41 93 97 107 36 73 94 112
split_gain=20.0403 33.3311 17.8835 10.4811 9.21239 7.91367 6.0193 4.17829 0.271938 0.220648
threshold=0.021241380394352211 -0.05283481930679395 0.0044259401993367647 -0.031414275494265224 -0.15680782518705952 0.13787200037291417 -0.29692168043103367 0.19701923094700599 -0.059728671900695474 0.033554110000000005
decision_type=2 2 2 2 2 2 2 2 2 2
left_child=9 2 6 5 -3 -4 8 -7 -2 -1
right_child=1 4 3 -5 -6 7 -8 -9 -10 -11
leaf_value=-0.0095830458424526442 -0.0097671277272519709 0.018431122357354723 0.0061847240853825378 0.010405130940861698 0.0058024730061148281 -0.0096502923645847907 0.00016550534319142559 0.00045508886033172907 -0.0068097705255758039 -0.0067006413789933239
leaf_weight=14.759368613362314 18.92196749150753 12.020268753170969 10.879924178123476 13.496009752154349 11.702744126319883 8.5360255837440508 9.5988458096981031 7.5126390457153311 7.0998160839080837 6.99349221587181
leaf_count=64 79 44 42 52 45 36 38 30 30 30
internal_value=0 0.00189078 -0.00132568 0.00320995 0.0122435 -0.000358983 -0.00650108 -0.00485749 -0.00899867 -0.00870233
internal_weight=0 99.7682 76.0452 40.4246 23.723 26.9286 35.6206 16.0487 26.0218 21.7529
internal_count=490 396 307 160 89 108 147 66 109 94
is_linear=0
shrinkage=0.01


Tree=54
num_leaves=11
num_cat=0
split_feature=54 26 15 78 100 57 111 48 22 63
split_gain=34.9768 18.9959 18.8419 14.6077 11.2346 20.923 8.5608 17.0063 2.79048 7.80511
threshold=0.018535985000000001 0.038716169504879668 0.0045154450926929513 0.04485664820372285 0.092956305000000017 0.16811708108706261 0.13506964813385089 -0.025437538015081026 -0.24675870165673489 0.03275437372035956
decision_type=2 2 2 2 2 2 2 2 2 2
left_child=1 2 -1 4 -4 -6 7 -3 -2 -10
right_child=8 6 3 -5 5 -7 -8 -9 9 -11
leaf_value=-0.0033717916619289278 -0.0096698412943244244 -0.0084506499487755279 0.020608689531661346 -0.00025554661952115041 0.018967667267965001 -0.0034828729738180849 -0.0089808605466579795 0.012531333682569833 -0.0095831033888078149 0.0035718140914122801
leaf_weight=12.171813443303106 23.653452664613724 7.5761949568986893 14.296761080622675 9.0794198364019376 8.7592206001281756 7.7714069783687583 12.354545921087263 7.8402977585792559 11.362678632140161 7.3403506129980078
leaf_count=49 101 31 51 35 32 31 51 30 49 30
internal_value=0 0.0038901 0.00745703 0.0107849 0.0140691 0.00835269 -0.00276291 0.0021552 -0.0073518 -0.00436674
internal_weight=0 79.8497 52.0786 39.9068 30.8274 16.5306 27.771 15.4165 42.3565 18.703
internal_count=490 310 198 149 114 63 112 61 180 79
is_linear=0
shrinkage=0.01


Tree=55
num_leaves=8
num_cat=0
split_feature=13 16 14 58 26 14 67
split_gain=74.6958 19.9172 13.1663 5.38247 4.79877 1.7141 0.454256
threshold=0.020584085956215855 0.06088475137948985 0.0071161047216028259 0.037918860280722444 0.030148488482128658 0.0093779331073164506 0.32994379067937951
decision_type=2 2 2 2 2 2 2
left_child=4 2 -2 -4 -1 -5 -7
right_child=1 -3 3 5 -6 6 -8
leaf_value=0.0099672063898023997 0.0029495197714026321 0.010458408598058362 0.00070112211606498031 -0.0036977110709125009 0.018950405510656926 -0.0070172613197125701 -0.009408798706245591
leaf_weight=11.10211229324341 15.182119250297545 8.5795582830905897 7.4163229912519446 8.261509180068968 14.677063286304472 14.934759005904196 41.983705565333366
leaf_count=40 59 32 30 34 51 63 181
internal_value=0 -0.00404386 -0.00547272 -0.00724784 0.0151205 -0.00816763 -0.00879886
internal_weight=0 96.358 87.7784 72.5963 25.7792 65.18 56.9185
internal_count=490 399 367 308 91 278 244
is_linear=0
shrinkage=0.01


Tree=56
num_leaves=11
num_cat=0
split_feature=14 98 39 78 112 13 108 54 26 13
split_gain=26.9591 8.80932 10.6425 9.84028 13.2221 12.5513 4.37668 4.09062 2.39384 1.47876
threshold=0.040612893182318116 0.20807387850000003 0.18314327068563171 0.042097617656250537 0.023733195000000002 0.048153834794626545 0.08708236403909865 0.017363085000000004 0.047076457656702479 0.56301413142076373
decision_type=2 2 2 2 2 2 2 2 2 2
left_child=1 2 -1 4 -3 -6 -5 -4 9 -2
right_child=8 3 7 6 5 -7 -8 -9 -10 -11
leaf_value=0.00052534525736927821 -0.0096345872432736252 -0.0035908008106743695 0.0079857903687105165 -0.0082357157792978166 -0.00058333773967447051 0.015741968106881436 0.0011434314774507839 0.01820176772426179 -0.0012968388922573923 -0.0050838361621155645
leaf_weight=12.055594578385355 19.777963489294052 12.66878069937229 8.689693436026575 12.501267418265344 7.4965028911829021 12.164597824215887 7.9824138283729544 8.0061878412961942 7.1726187318563452 13.145886838436125
leaf_count=47 85 51 33 51 30 45 32 30 30 56
internal_value=0 0.00331337 0.00777192 0.000867222 0.00431893 0.0094665 -0.00453188 0.0129446 -0.00670098 -0.00784793
internal_weight=0 81.565 28.7515 52.8136 32.3299 19.6611 20.4837 16.6959 40.0965 32.9239
internal_count=490 319 110 209 126 75 83 63 171 141
is_linear=0
shrinkage=0.01


Tree=57
num_leaves=8
num_cat=0
split_feature=14 80 108 21 65 24 30
split_gain=70.007 19.0297 21.2954 12.7816 9.89581 3.42174 1.17677
threshold=0.13409046305616978 -0.22392373099121843 0.092453627250000017 -0.060519119599999997 0.13097957000000002 0.32301841100000006 0.14614378222763671
decision_type=2 2 2 2 2 2 2
left_child=1 2 -1 5 -2 6 -3
right_child=4 3 -4 -5 -6 -7 -8
leaf_value=0.013204860591387488 0.020604977190892697 -0.0096506042049236251 -0.008350469191083407 0.0030402475154558762 0.0082630513890330787 -0.0014975040959681405 -0.0055396577145877335
leaf_weight=11.785504579544069 12.954933732748033 46.360718160867691 7.4443576335906974 12.11271360516548 13.807301700115202 7.2765508145093909 9.700726315379141
leaf_count=44 45 200 31 48 51 30 41
internal_value=0 -0.00404261 0.00480825 -0.00631165 0.0142748 -0.00811589 -0.00895709
internal_weight=0 94.6806 19.2299 75.4507 26.7622 63.338 56.0614
internal_count=490 394 75 319 96 271 241
is_linear=0
shrinkage=0.01


Tree=58
num_leaves=10
num_cat=0
split_feature=54 14 111 83 28 22 78 22 63
split_gain=34.4136 22.9789 16.2687 23.2962 16.0142 4.11366 3.44579 2.77945 7.71044
threshold=0.018535985000000001 0.016968663644829397 0.15244761765861764 -0.13156266563647526 -0.090162526267263635 -0.2430464747111577 0.043062243714774871 -0.24675870165673489 0.03275437372035956
decision_type=2 2 2 2 2 2 2 2 2
left_child=1 4 3 -3 -1 -5 -6 -2 -9
right_child=7 2 -4 5 6 -7 -8 8 -10
leaf_value=0.0081720159970424342 -0.0096437080496214293 -0.003223124327193651 -0.0030713693308963936 0.019641151667217149 -0.0090239256891409114 0.010855515349002216 -0.001595734856428702 -0.0095560073500111156 0.0035267629502188885
leaf_weight=11.308648183941839 23.499343171715736 7.5099078267812684 8.7696074545383436 16.956022441387177 15.733397349715235 8.7268192768096977 10.966014832258223 11.284277513623239 7.3579749614000312
leaf_count=43 101 30 35 59 67 31 45 49 30
internal_value=0 0.00384603 0.00895159 0.0121582 -0.0017644 0.0166948 -0.00601046 -0.00732064 -0.00433868
internal_weight=0 79.9704 41.9624 33.1927 38.0081 25.6828 26.6994 42.1416 18.6423
internal_count=490 310 155 120 155 90 112 180 79
is_linear=0
shrinkage=0.01


Tree=59
num_leaves=9
num_cat=0
split_feature=14 97 58 78 112 54 31 104
split_gain=64.8424 24.9859 7.03822 5.98687 6.09073 3.10727 3.84918 1.05308
threshold=0.0051094159154492103 -0.13753136762812496 0.04069440500000001 0.036758398290971751 0.032333599803951625 0.016349480000000003 0.078301367376281586 0.090459067300000015
decision_type=2 2 2 2 2 2 2 2
left_child=3 2 -2 -1 -5 7 -7 -4
right_child=1 -3 5 4 -6 6 -8 -9
leaf_value=0.018925585806539774 0.0013312653886754131 0.0089529748899986571 -0.0096931207039343079 0.0035753754413312649 0.014808824409359161 -0.0079824385327229314 0.00046708832460012596 -0.0057988236514038239
leaf_weight=10.401490896940233 10.378537803888319 12.440942615270613 37.18682524561882 9.7307007908821124 10.178171262145041 11.814625501632692 9.527066841721533 10.37458500266075
leaf_count=37 41 48 159 35 37 50 39 44
internal_value=0 -0.00418955 -0.0062645 0.0126812 0.00936857 -0.00742312 -0.00416366 -0.00886468
internal_weight=0 91.7226 79.2816 30.3104 19.9089 68.9031 21.3417 47.5614
internal_count=490 381 333 109 72 292 89 203
is_linear=0
shrinkage=0.01


Tree=60
num_leaves=12
num_cat=0
split_feature=14 110 112 78 13 98 75 37 66 40 85
split_gain=26.4901 8.70112 7.47456 10.7285 20.0196 9.38899 6.88197 5.32546 5.23386 2.39463 1.00723
threshold=0.040612893182318116 0.20524623380412266 0.017853588322875421 0.039575954300000007 0.024815720041526847 0.20769271767941838 -0.081513849813038483 0.064816282490297542 0.24907493500000003 0.1034201385958972 -0.23906837469717615
decision_type=2 2 2 2 2 2 2 2 2 2 2
left_child=1 2 6 4 -4 -5 -1 -6 -7 10 -2
right_child=9 -3 3 5 7 8 -8 -9 -10 -11 -12
leaf_value=-0.009787997293464747 -0.0091486128808765197 0.01319910824918968 -0.0045962167883347319 0.0068875240333871185 0.0085206986293349836 0.0014579250427978992 0.0031745354585460423 0.019757907494603117 -0.0088812538920749664 -0.0012513289466488671 -0.005179236314283674
leaf_weight=8.8003851026296633 21.503995627164841 8.0096003860235196 7.7729175239801434 12.203876450657846 8.3716984391212481 8.5840993225574511 7.5050218552350989 9.487172067165373 10.967906743288038 7.1442919820547095 11.242996111512182
leaf_count=36 93 30 32 47 31 34 30 34 45 30 48
internal_value=0 0.00327554 0.00218339 0.00388958 0.00870222 0 -0.0037603 0.0145462 -0.0042908 -0.00666566 -0.00781635
internal_weight=0 81.7027 73.6931 57.3877 25.6318 31.7559 16.3054 17.8589 19.552 39.8913 32.747
internal_count=490 319 289 223 97 126 66 65 79 171 141
is_linear=0
shrinkage=0.01


Tree=61
num_leaves=8
num_cat=0
split_feature=14 80 71 21 65 24 30
split_gain=68.3475 18.7758 27.4814 12.6431 9.52954 3.40076 1.17754
threshold=0.13409046305616978 -0.22392373099121843 -0.10561612749484041 -0.060519119599999997 0.13097957000000002 0.32301841100000006 0.14614378222763671
decision_type=2 2 2 2 2 2 2
left_child=1 2 -1 5 -2 6 -3
right_child=4 3 -4 -5 -6 -7 -8
leaf_value=0.014656306594463972 0.020216059646303207 -0.009625539187892912 -0.0096310218162696023 0.0030059802578537567 0.0081438486727374321 -0.0014861225890278266 -0.005504773440918969
leaf_weight=11.45589452981949 13.077935665845873 46.060504138469696 7.8061571419239035 12.133843705058096 13.870241105556486 7.2693490087985984 9.6598382741212827
leaf_count=42 45 200 33 48 51 30 41
internal_value=0 -0.00401694 0.00476169 -0.00628114 0.0140396 -0.00808601 -0.0089291
internal_weight=0 94.3856 19.2621 75.1235 26.9482 62.9897 55.7203
internal_count=490 394 75 319 96 271 241
is_linear=0
shrinkage=0.01


Tree=62
num_leaves=11
num_cat=0
split_feature=54 14 111 83 28 61 44 73 25 38
split_gain=33.821 22.4097 15.7985 22.5659 15.7683 4.03424 3.38507 2.77014 1.41688 0.192622
threshold=0.018535985000000001 0.016968663644829397 0.15244761765861764 -0.13156266563647526 -0.090162526267263635 -0.04717538929342454 -0.099039157274880316 0.17494954204589316 0.17071574000000003 0.018629837576172745
decision_type=2 2 2 2 2 2 2 2 2 2
left_child=1 4 3 -3 -1 -5 9 -2 -9 -6
right_child=7 2 -4 5 6 -7 -8 8 -10 -11
leaf_value=0.0080794452200631823 -0.0015673303288408821 -0.0032020733301640638 -0.0030457667211184164 0.013349750735413611 -0.0067467405467546843 0.02195937431789349 -0.00090799258807848645 -0.0095990642098443112 -0.0044356282950558544 -0.0096840763960796376
leaf_weight=11.350002884864805 7.4001037031412116 7.4965527951717332 8.7499616444110853 16.848942160606384 7.0407727956771877 9.0421126782894188 9.0907937139272708 26.86783741414547 7.6421480476856223 10.472712263464926
leaf_count=43 31 30 35 59 30 31 38 117 32 44
internal_value=0 0.00380014 0.00882427 0.011965 -0.00175141 0.0163952 -0.00598307 -0.00728708 -0.00848461 -0.00856031
internal_weight=0 80.0919 42.1376 33.3876 37.9543 25.8911 26.6043 41.9101 34.51 17.5135
internal_count=490 310 155 120 155 90 112 180 149 74
is_linear=0
shrinkage=0.01


Tree=63
num_leaves=10
num_cat=0
split_feature=13 97 26 14 75 78 51 38 92
split_gain=71.6084 22.3914 8.48405 6.7727 3.06035 7.23637 1.26147 0.580076 0.174931
threshold=0.036666180938482257 -0.13404261499999998 0.03002300957787047 0.0056915467997558132 -0.080587194999999986 0.037713726763601269 0.024933090875145159 0.028291580000000004 0.037602920000000005
decision_type=2 2 2 2 2 2 2 2 2
left_child=2 3 -1 -2 7 8 -4 -5 -6
right_child=1 -3 6 4 5 -7 -8 -9 -10
leaf_value=0.0070798441007993264 0.0023436219446029151 0.0093619059315848737 0.020477638510846715 -0.0094232960536448519 -0.0096133286365508979 0.0029972574327312329 0.014406566043381868 -0.0061568770851505184 -0.0066550750455139146
leaf_weight=14.678068861365317 7.8523729741573325 10.149028256535528 8.8765123784542102 38.740350335836411 8.9193254709243792 8.46805292367935 8.6190397590398771 8.6827970594167692 6.9523850530385962
leaf_count=54 30 39 31 166 38 35 30 37 30
internal_value=0 -0.00458685 0.0128011 -0.00637754 -0.00734576 -0.00438098 0.0175439 -0.00884633 -0.00838051
internal_weight=0 89.7643 32.1736 79.6153 71.7629 24.3398 17.4956 47.4231 15.8717
internal_count=490 375 115 336 306 103 61 203 68
is_linear=0
shrinkage=0.01


Tree=64
num_leaves=12
num_cat=0
split_feature=14 27 98 39 78 15 15 66 16 82 66
split_gain=26.0261 8.4879 9.74091 9.15744 8.23551 10.1853 6.48986 3.48306 2.40562 4.59753 0.586459
threshold=0.040612893182318116 -0.13036446500722196 0.20807387850000003 0.18314327068563171 0.042097617656250537 0.0025407710345461501 0.0054820571094751002 0.25195385796628911 0.016361954621970601 0.074911748750000021 0.25825771230022704
decision_type=2 2 2 2 2 2 2 2 2 2 2
left_child=1 2 3 -1 5 -4 -7 -6 9 -2 -11
right_child=8 -3 4 -5 7 6 -8 -9 -10 10 -12
leaf_value=0.00044945122370521149 0.0017580874397940009 0.011192925804796718 -0.0062541854249008591 0.012528530458640982 -0.000780589269808904 0.013463930904048318 0.0012415655868290747 -0.009758258511804686 -0.009566427675967307 -0.0095647179359117426 -0.0051453264194539182
leaf_weight=12.105905324220659 7.6840936243534115 11.570166558027266 8.5253661125898379 13.443718582391737 7.7096954435110119 8.3181490302085894 9.5125914812087995 10.641598939895628 16.73410864174366 8.3682931214570981 6.8975087553262702
leaf_count=47 32 44 35 50 31 31 37 44 73 36 30
internal_value=0 0.00323853 0.00191434 0.00684437 -0.000880734 0.00267438 0.00699946 -0.00604108 -0.00663004 -0.00444538 -0.00763342
internal_weight=0 81.8272 70.257 25.5496 44.7074 26.3561 17.8307 18.3513 39.684 22.9499 15.2658
internal_count=490 319 275 97 178 103 68 75 171 98 66
is_linear=0
shrinkage=0.01


Tree=65
num_leaves=8
num_cat=0
split_feature=14 80 71 21 94 104 30
split_gain=66.7528 18.5047 26.8335 12.5301 9.43718 3.40038 0.533047
threshold=0.13409046305616978 -0.22392373099121843 -0.10561612749484041 -0.060519119599999997 -0.053348189999999997 0.060763964063259214 0.14614378222763671
decision_type=2 2 2 2 2 2 2
left_child=1 2 -1 5 -2 -3 -7
right_child=4 3 -4 -5 -6 6 -8
leaf_value=0.014410427426783315 0.0089015749623420366 -0.0024746471327360977 -0.0096019282954949575 0.0029855431845032462 0.021121436776228207 -0.0096006033911885547 -0.0066224123829518502
leaf_weight=11.541298538446428 16.305645376443866 9.712391793727873 7.7523002773523322 12.14590936899185 10.821618020534514 43.027793020009995 9.9043444544076902
leaf_count=42 59 41 33 48 37 188 42
internal_value=0 -0.00399194 0.00471027 -0.00625021 0.0138132 -0.00805686 -0.00906223
internal_weight=0 94.084 19.2936 74.7904 27.1273 62.6445 52.9321
internal_count=490 394 75 319 96 271 230
is_linear=0
shrinkage=0.01


Tree=66
num_leaves=10
num_cat=0
split_feature=54 14 28 26 111 97 78 22 92
split_gain=33.2556 21.8499 15.4908 15.4423 7.61381 3.77252 3.42777 2.7727 6.94039
threshold=0.018535985000000001 0.016968663644829397 -0.090162526267263635 0.03543039500000001 0.14746513708715805 -0.16617157064348881 0.043062243714774871 -0.24675870165673489 0.026463815206345182
decision_type=2 2 2 2 2 2 2 2 2
left_child=1 2 -1 4 5 -3 -4 -2 -9
right_child=7 3 6 -5 -6 -7 -8 8 -10
leaf_value=0.0079746181347842508 -0.0095930754694244069 0.021470258805118769 -0.0089771783381652637 0.00044399730776981534 0.0056312399532860149 0.01193236478909623 -0.0015445391919498639 -0.0095128408859605912 0.0028181461021657868
leaf_weight=11.396942019462584 23.192875295877457 9.4457651972770709 15.576969206333162 14.916779592633246 9.2777924090623838 8.6648394763469714 10.919821724295614 10.709167197346689 7.7849918752908698
leaf_count=43 101 32 67 58 35 30 45 47 32
internal_value=0 0.00375624 -0.00173689 0.0087002 0.0131603 0.0169622 -0.00595179 -0.00725469 -0.00426812
internal_weight=0 80.1989 37.8937 42.3052 27.3884 18.1106 26.4968 41.687 18.4942
internal_count=490 310 155 155 97 62 112 180 79
is_linear=0
shrinkage=0.01


Tree=67
num_leaves=10
num_cat=0
split_feature=13 27 26 14 108 75 39 51 15
split_gain=70.0344 19.6435 8.17738 6.28516 2.18181 1.35727 3.91843 1.2083 0.311598
threshold=0.036666180938482257 -0.19953040232145847 0.03002300957787047 0.0056915467997558132 0.070009254645870725 -0.080587194999999986 0.19012127541189394 0.024933090875145159 0.015160937916680349
decision_type=2 2 2 2 2 2 2 2 2
left_child=2 -2 -1 -3 -5 8 -7 -4 -6
right_child=1 3 7 4 5 6 -8 -9 -10
leaf_value=0.0069920639124824322 0.0079133395289946781 0.0012320837331445981 0.02010414320084359 -0.0030415389056678427 -0.0096435513845472415 -0.0096319874572590291 0 0.014169132094200919 -0.0067564730801813553
leaf_weight=14.727660119533537 11.003475189208983 9.4619521200656873 8.9578460454940814 10.589182212948797 34.014722615480416 10.092786416411409 7.1135892421007147 8.6769565194845182 7.1884217262268058
leaf_count=54 43 36 31 45 147 43 30 30 31
internal_value=0 -0.00455893 0.0126076 -0.00632081 -0.00737105 -0.00813884 -0.0056255 0.0172406 -0.00916413
internal_weight=0 89.4641 32.3625 78.4607 68.9987 58.4095 17.2064 17.6348 41.2031
internal_count=490 375 115 332 296 251 73 61 178
is_linear=0
shrinkage=0.01


Tree=68
num_leaves=12
num_cat=0
split_feature=110 0 56 67 13 12 67 40 15 112 15
split_gain=11.6341 8.56047 8.87434 8.69628 7.30424 6.82097 5.84235 5.29896 2.47918 1.59471 1.52318
threshold=0.20524623380412266 1.0000000180025095e-35 -0.2810828502588209 0.32895245554143299 0.94070965798895279 -1.0000000180025095e-35 0.3213372307661117 0.092100909364991934 0.0046560813854876057 0.027629115953158766 0.038725562053677998
decision_type=2 2 2 2 2 2 2 2 2 2 2
left_child=1 4 3 5 6 -3 -1 9 -8 -5 -10
right_child=-2 2 -4 7 -6 -7 8 -9 10 -11 -12
leaf_value=0.00073503241782387505 0.011098662214271216 0.011533190073274009 0.0093044318816049229 -0.0097324097330862645 0.0050502700280123346 -0.0011467956579387221 -0.0016403603898557475 0.0029138092963955707 -0.0096458404263086474 -0.0033682100973646961 -0.0040931945183040478
leaf_weight=12.909599527716635 8.7874682247638685 8.6362903416156787 12.719976708292959 9.8532530665397697 8.3930857777595502 8.0841042399406415 7.3397363275289527 7.5852909386157981 22.287962988018993 7.5751945674419394 7.2641421705484381
leaf_count=52 33 33 49 41 32 33 30 30 96 30 31
internal_value=0 -0.000847827 0.00199024 -0.000215064 -0.00352066 0.00534277 -0.00498521 -0.00397016 -0.007014 -0.00702362 -0.00831479
internal_weight=0 112.649 54.4541 41.7341 58.1945 16.7204 49.8014 25.0137 36.8918 17.4284 29.5521
internal_count=490 457 216 167 241 66 209 101 157 71 127
is_linear=0
shrinkage=0.01


Tree=69
num_leaves=8
num_cat=0
split_feature=14 80 71 21 65 30 93
split_gain=65.2439 18.2569 26.2191 12.4152 9.11992 3.3926 1.78003
threshold=0.13409046305616978 -0.22392373099121843 -0.10561612749484041 -0.060519119599999997 0.13097957000000002 0.15125307659032769 -0.030718264999999998
decision_type=2 2 2 2 2 2 2
left_child=1 2 -1 5 -2 6 -3
right_child=4 3 -4 -5 -6 -7 -8
leaf_value=0.01418062265515397 0.019589810756429571 -0.0095823349521769446 -0.0095727557348508786 0.002962346982110114 0.0078544532050684544 -0.0014204171196942905 -0.0039437241048832748
leaf_weight=11.621889591217043 13.276074677705767 48.021751493215561 7.6968421638011923 12.159587517380713 14.02172341942787 7.227540746331214 7.0618676990270606
leaf_count=42 45 211 33 48 51 30 30
internal_value=0 -0.00396772 0.00466519 -0.00622064 0.0135985 -0.00802869 -0.0088776
internal_weight=0 93.7895 19.3187 74.4707 27.2978 62.3112 55.0836
internal_count=490 394 75 319 96 271 241
is_linear=0
shrinkage=0.01


Tree=70
num_leaves=11
num_cat=0
split_feature=25 92 26 15 74 73 14 81 56 78
split_gain=26.2358 22.1089 23.5923 15.9157 10.6691 9.89655 5.90356 4.08246 2.1595 1.0714
threshold=0.16092032813937021 0.025822597869952446 0.037633355000000007 0.0046560813854876057 0.043992095044877368 0.18568991500000001 0.066918717575996114 -0.13880203112204106 -0.28883033333358238 0.036535126645316017
decision_type=2 2 2 2 2 2 2 2 2 2
left_child=6 9 3 -3 -4 -5 8 -7 -1 -2
right_child=1 2 4 5 -6 7 -8 -9 -10 -11
leaf_value=-0.0096027350147085619 -0.0040162514165051049 -0.0015844855327352839 -0.0097775481638316519 0.0066155092339200321 0.0047464220900860681 0.022825810339213711 0 0.013447201964948674 -0.0033588307170779796 -0.0096541913620938179
leaf_weight=25.693029105663296 7.0779866129159918 8.3183352798223478 10.169035434722902 12.31292289495468 9.9668070226907712 10.019997522234911 11.975526362657545 10.195075020194059 7.7570953071117428 8.283253535628317
leaf_count=112 30 33 42 47 39 35 49 36 32 35
internal_value=0 0.0035703 0.00627994 0.0106518 -0.00253883 0.0138117 -0.00602764 0.0181454 -0.00818467 -0.0071215
internal_weight=0 76.3434 60.9822 40.8463 20.1358 32.528 45.4257 20.2151 33.4501 15.3612
internal_count=490 297 232 151 81 118 193 71 144 65
is_linear=0
shrinkage=0.01


Tree=71
num_leaves=9
num_cat=0
split_feature=14 97 62 19 55 14 83 14
split_gain=60.8699 23.9742 6.15664 8.1358 5.92254 7.78002 10.07 2.97752
threshold=0.0051094159154492103 -0.13753136762812496 0.035705650000000005 0.0042904191518458685 -0.033958193523822018 0.089884676451295178 -0.10142888499999998 0.0098172977759390188
decision_type=2 2 2 2 2 2 2 2
left_child=2 4 -1 -4 5 6 7 -2
right_child=1 -3 3 -5 -6 -7 -8 -9
leaf_value=0.018618717386613783 0.00015747561571131453 0.0086675567341568446 0.014088283632926224 0.0011584269027217118 -0.0093363404182582981 -0.0090509615957246187 0.008663338283806719 -0.0077939791919772088
leaf_weight=10.147660613059999 7.7416021078825024 12.575738027691839 12.330000251531603 8.3342472314834577 34.05341961979866 16.973785027861595 8.4235182404518145 11.135880216956137
leaf_count=36 31 48 43 30 148 73 33 48
internal_value=0 -0.004116 0.0121479 0.00892184 -0.00618119 -0.00373185 -0.000388188 -0.00448014
internal_weight=0 90.9039 30.8119 20.6642 78.3282 44.2748 27.301 18.8775
internal_count=490 381 109 73 333 185 112 79
is_linear=0
shrinkage=0.01


Tree=72
num_leaves=12
num_cat=0
split_feature=110 0 56 67 13 104 97 106 40 98 72
split_gain=11.3732 8.40249 8.70743 8.55396 7.19882 6.69269 6.02482 12.1495 5.2333 1.57889 1.28107
threshold=0.20524623380412266 1.0000000180025095e-35 -0.2810828502588209 0.32895245554143299 0.94070965798895279 0.082362676952988226 -0.15224375749999997 0.048033030000000011 0.092100909364991934 0.21865345781273829 0.22266115186844468
decision_type=2 2 2 2 2 2 2 2 2 2 2
left_child=1 4 3 5 6 -3 10 -8 9 -5 -1
right_child=-2 2 -4 8 -6 -7 7 -9 -10 -11 -12
leaf_value=-0.0091721997738445395 0.010943060460865508 0.011332583406250358 0.0091944305670916115 -0.0033590916974552227 0.005001773198474199 -0.0012150529485159822 -0.0070907214274490349 0.0091676424457729985 0.0028753070337214155 -0.0097031897138697264 -0.0045297235835308801
leaf_weight=20.711263984441757 8.8355399668216688 8.7581778317689913 12.774319127202032 7.5620922148227754 8.4112051576375944 8.0089696347713453 11.405653864145284 7.6877110302448264 7.6002135276794425 9.8045953512191755 9.8125809580087644
leaf_count=89 33 34 49 30 32 32 48 30 30 41 42
internal_value=0 -0.000839298 0.00196831 -0.000219562 -0.00349383 0.00527946 -0.00495417 -0.000492115 -0.00395262 -0.00699832 -0.00771253
internal_weight=0 112.537 54.5084 41.734 58.0284 16.7671 49.6172 19.0934 24.9669 17.3667 30.5238
internal_count=490 457 216 167 241 66 209 78 101 71 131
is_linear=0
shrinkage=0.01


Tree=73
num_leaves=9
num_cat=0
split_feature=14 80 71 65 36 83 19 22
split_gain=63.7694 17.9833 25.6079 8.86033 8.71246 12.3867 3.08701 0.331449
threshold=0.13409046305616978 -0.22392373099121843 -0.10561612749484041 0.13097957000000002 -0.29035297999999993 -0.10387136999999998 -0.015549773568289431 -0.23408993423896643
decision_type=2 2 2 2 2 2 2 2
left_child=1 2 -1 -2 6 -6 -3 -8
right_child=3 4 -4 -5 5 -7 7 -9
leaf_value=0.013943564572592482 0.01926733234146041 -0.0027868371095456637 -0.0095452486724063833 0.0077334353740431492 0.0096768608354673609 -0.0082688399904287634 -0.0095647936220457225 -0.0071776746243375402
leaf_weight=11.704990908503534 13.378249913454058 10.157645642757414 7.6452326178550711 14.085422754287718 7.527146115899086 7.8526594787836057 36.73181164264679 11.872803032398222
leaf_count=42 45 43 33 51 30 34 162 50
internal_value=0 -0.00394384 0.0046115 0.0133883 -0.00619017 0.00044908 -0.00794488 -0.00900226
internal_weight=0 93.4923 19.3502 27.4637 74.1421 15.3798 58.7623 48.6046
internal_count=490 394 75 96 319 64 255 212
is_linear=0
shrinkage=0.01


Tree=74
num_leaves=10
num_cat=0
split_feature=54 14 28 111 83 61 78 73 25
split_gain=32.2814 20.9925 15.0586 14.8353 21.0469 3.77626 3.41003 2.79411 1.39863
threshold=0.018535985000000001 0.016968663644829397 -0.090162526267263635 0.15244761765861764 -0.13156266563647526 -0.04717538929342454 0.043062243714774871 0.17494954204589316 0.17071574000000003
decision_type=2 2 2 2 2 2 2 2 2
left_child=1 2 -1 4 -3 -6 -4 -2 -9
right_child=7 3 6 -5 5 -7 -8 8 -10
leaf_value=0.0078056751063288405 -0.0014224917712572288 -0.0031838346705857219 -0.0089409311567017671 -0.0030280957126191245 0.012784849595742213 0.0210430194761063 -0.0015082179918845698 -0.0095333474551996793 -0.0043784678878596604
leaf_weight=11.469429701566694 7.3092172592878333 7.4828786253929094 15.451166003942491 8.7340080440044385 17.123483836650848 9.2306329011917168 10.883789509534834 26.385990425944328 7.5914847850799552
leaf_count=43 31 30 67 35 59 31 45 117 32
internal_value=0 0.0036809 -0.00172034 0.00850085 0.0115063 0.0157153 -0.00590709 -0.00719804 -0.00841104
internal_weight=0 80.3754 37.8044 42.571 33.837 26.3541 26.335 41.2867 33.9775
internal_count=490 310 155 155 120 90 112 180 149
is_linear=0
shrinkage=0.01


Tree=75
num_leaves=10
num_cat=0
split_feature=14 97 98 58 14 18 69 52 59
split_gain=59.494 23.6041 11.8357 6.8594 2.94297 6.06576 1.17077 0.912955 2.79293
threshold=0.0051094159154492103 -0.13753136762812496 0.21062461704324748 0.04069440500000001 0.0093779331073164506 0.033244596468733838 -0.1769234126921774 0.16090398122636668 -0.058065996265921321
decision_type=2 2 2 2 2 2 2 2 2
left_child=2 3 -1 -2 5 -5 -4 -6 -9
right_child=1 -3 6 4 7 -7 -8 8 -10
leaf_value=0.0045534166491683617 0.001349784648442326 0.0085610354634329533 0.01996595091856395 -0.0097293247490002847 -0.009526942093980582 0.0028722522029903186 0.014171205870717404 -0.0016054114562494865 -0.0095700616485828553
leaf_weight=12.93226830661297 10.349274605512617 12.627637252211569 9.3025421798229235 7.4978215694427472 33.05859999358654 7.6134411990642548 8.7545863389968854 7.4928441047668484 11.972776934504507
leaf_count=46 41 48 32 31 147 30 31 32 52
internal_value=0 -0.00408954 0.0119616 -0.0061508 -0.00731329 -0.00331415 0.0172119 -0.0084448 -0.00655562
internal_weight=0 90.6124 30.9894 77.9848 67.6355 15.1113 18.0571 52.5242 19.4656
internal_count=490 381 109 333 292 61 63 231 84
is_linear=0
shrinkage=0.01


Tree=76
num_leaves=11
num_cat=0
split_feature=14 104 75 27 82 115 54 81 40 85
split_gain=24.8913 8.0291 9.27356 12.6412 8.67717 6.45597 5.1571 2.68516 2.41685 1.01391
threshold=0.040612893182318116 0.080236500166111127 -0.096098675699999983 -0.15708579479364934 0.070831917624644566 0.03875237264202594 0.014801052417227352 -0.13682446072870943 0.1034201385958972 -0.23906837469717615
decision_type=2 2 2 2 2 2 2 2 2 2
left_child=1 2 6 -4 5 -3 -1 -6 9 -2
right_child=8 4 3 -5 7 -7 -8 -9 -10 -11
leaf_value=-0.0059703045055943815 -0.0090605703005407646 -0.0018493666664262279 0.0019613946700456301 0.015702112570753286 -0.0080478388498838836 0.0096994847274130529 0.0054797854922130516 -0.00040132623850839356 -0.001066302005153769 -0.0050479575035713188
leaf_weight=7.5500344932079306 21.053938075900078 8.4947221279144305 12.260931923985479 15.252006694674494 11.239836722612383 10.885259941220282 8.2120854109525663 8.2502396851778013 7.0371850878000251 11.064480260014532
leaf_count=30 93 33 48 57 46 41 32 32 30 48
internal_value=0 0.00314767 0.00611118 0.00961501 -0.000125955 0.00458574 0 -0.00486234 -0.00654102 -0.0077094
internal_weight=0 82.1451 43.2751 27.5129 38.8701 19.38 15.7621 19.4901 39.1556 32.1184
internal_count=490 319 167 105 152 74 62 78 171 141
is_linear=0
shrinkage=0.01


Tree=77
num_leaves=8
num_cat=0
split_feature=14 0 21 41 94 67 104
split_gain=62.3388 17.6232 13.3243 40.8478 8.82624 3.98912 0.297098
threshold=0.13409046305616978 9.5000000000000018 -0.068807254999999998 0.0064787062541826227 -0.053348189999999997 0.35108309240432861 0.062183217584723886
decision_type=2 2 2 2 2 2 2
left_child=1 2 5 -4 -2 6 -1
right_child=4 -3 3 -5 -6 -7 -8
leaf_value=-0.0067562176803788957 0.0084599591516506291 0.0086490726408984704 -0.0089998506710689697 0.019189072534666091 0.020166905944132313 -0.0027461830468325349 -0.0095597942036076671
leaf_weight=7.1740371137857428 16.560400724411014 9.9078404605388624 14.19277659058571 8.0524982362985593 11.062543779611586 12.711910277605055 41.153989598155022
leaf_count=31 59 38 60 30 37 53 182
internal_value=0 -0.00392005 -0.00542732 0.00115922 0.0131846 -0.00784408 -0.00916431
internal_weight=0 93.1931 83.2852 22.2453 27.6229 61.0399 48.328
internal_count=490 394 356 90 96 266 213
is_linear=0
shrinkage=0.01


Tree=78
num_leaves=10
num_cat=0
split_feature=54 14 28 26 91 13 73 100 25
split_gain=31.7278 20.4755 14.8052 14.3295 7.05141 3.39778 2.79259 2.57835 1.3953
threshold=0.018535985000000001 0.016968663644829397 -0.090162526267263635 0.03543039500000001 0.22215604000000003 0.50212076429908314 0.17494954204589316 0.092956305000000017 0.17071574000000003
decision_type=2 2 2 2 2 2 2 2 2
left_child=1 2 -1 4 7 -4 -2 -3 -8
right_child=6 3 5 -5 -6 -7 8 -9 -10
leaf_value=0.0077095319343889268 -0.0013838170927355487 0.020298566009204308 -0.0089167787530725837 0.00041227857768163639 0.0056295465400733671 -0.0014851621449075833 -0.0095088607723461758 0.012269092100035395 -0.0043505018178157931
